#ifndef _MODEL_WEIGHTS_H
#define _MODEL_WEIGHTS_H

// Auto-generated weights from PyTorch model

#define MAX_ALTITUDE 2800.0f
#define MAX_VELOCITY 260.0f

const float net_0_weight[32] = {
    -0.2996306f, 0.3704856f, -0.4946123f, -0.1562177f, -0.3417536f, 0.3372037f, -0.1872200f, 0.0663550f, -0.2889588f, -0.1520351f, -0.1267445f, -0.0093830f, 0.0281126f, 1.7618126f, -0.3625923f, -0.4443352f, 0.1394544f, -0.0512398f, 0.7155022f, 0.9829066f, -0.1425742f, -0.7220896f, 0.1672278f, -0.7143604f, 0.3075371f, 0.2818483f, -0.1903676f, 0.3095911f, 0.1733974f, -0.3640644f, -0.2933476f, 0.0067959f
};

const float net_0_bias[16] = {
    -0.5595590f, -0.2016379f, -0.4601847f, -0.3260857f, 0.1433221f, -0.4270529f, 0.4376987f, 0.3517111f, 0.0489354f, 0.1537982f, 0.0389849f, 0.0999665f, -0.4235669f, -0.4765763f, 0.4574021f, 0.1920807f
};
#define SIZE_NET_0_BIAS 16

const float net_2_weight[512] = {
    0.0476061f, -0.0407031f, 0.0092893f, -0.0447427f, -0.2660770f, -0.0494068f, -0.4120395f, -0.0729947f, 0.2154944f, -0.1940119f, -0.2198439f, -0.2186631f, 0.0971505f, -0.2537267f, 0.1246915f, -0.2522176f, 0.1666249f, -0.1209478f, -0.1649342f, -0.2239304f, 0.0400842f, -0.0993217f, -0.0298599f, 0.0794047f, -0.1457322f, 0.3342053f, -0.3094843f, -0.1764591f, 0.1215692f, 0.1406156f, -0.0750479f, -0.0488912f, 0.1397011f, -0.1496227f, -0.1621352f, -0.1079468f, 0.0947114f, 0.1729124f, 0.1094145f, 0.1389931f, 0.2898120f, -0.0348266f, -0.0408447f, 0.2494138f, -0.1619760f, -0.0325862f, 0.2028542f, 0.2085816f, -0.0059561f, -0.0604572f, 0.1811141f, -0.1373244f, -0.1206303f, -0.1857619f, -0.2713480f, -0.3271834f, 0.0743271f, -0.2043736f, -0.1279831f, 0.0346134f, 0.3596590f, 0.0654671f, 0.0970108f, -0.2154032f, -0.0995302f, 0.1718292f, -0.1238986f, 0.1055985f, -0.1386314f, -0.1117718f, 0.1231764f, -0.0496828f, -0.2674336f, 0.1448551f, 0.1066840f, -0.2836613f, 0.0889573f, -0.2248379f, -0.0260535f, -0.1713060f, -0.2518226f, -0.0111395f, -0.0581959f, 0.0099914f, -0.1422847f, 0.0571802f, 0.0013238f, -0.0036410f, -0.0113480f, -0.1384364f, 0.1388248f, -0.1840145f, 0.1349483f, -0.0899108f, -0.0427699f, -0.2064938f, 0.1226381f, -0.1861046f, 0.1253479f, 0.1950856f, 0.1560739f, -0.0570578f, 0.0504212f, -0.0664074f, 0.2074752f, 0.0117900f, 0.2527085f, -0.0261013f, -0.2822898f, 0.1182229f, 0.1440641f, -0.1674356f, -0.1011445f, 0.1547061f, 0.0344609f, -0.0472133f, 0.0760502f, -0.2010517f, -0.1719412f, -0.2268040f, -0.0283565f, 0.1875517f, -0.0283497f, -0.0809264f, -0.0622393f, -0.1306679f, 0.1102041f, -0.2729646f, 0.1783992f, -0.0226979f, 0.0071453f, -0.0057020f, -0.1406190f, -0.0346110f, -0.0211198f, 0.0742757f, -0.1796943f, -0.0259728f, 0.0055134f, -0.0185243f, -0.2385475f, -0.0889794f, -0.0395215f, 0.2176614f, -0.0134669f, -0.1743370f, -0.1201109f, -0.1403810f, 0.0375121f, 0.1642835f, -0.0222664f, 0.1612247f, -0.2429090f, -0.4253766f, 0.2337899f, 0.2936255f, 0.1374005f, -0.1571842f, 0.0916398f, 0.0170495f, -0.2900012f, 0.1089882f, -0.1647532f, 0.2098245f, 0.1906174f, -0.1587874f, -0.2757026f, -0.1732361f, 0.1472595f, -0.0781392f, -0.0115912f, -0.2197834f, 0.2654780f, 0.0493209f, 0.0494598f, 0.1025543f, -0.1953391f, -0.1675778f, -0.0437544f, 0.2551957f, 0.1442741f, 0.0054595f, -0.1021238f, 0.2035157f, -0.2536478f, -0.0661964f, 0.2478585f, -0.0457059f, -0.2534972f, 0.2211138f, 0.0791257f, 0.1111505f, 0.3092059f, 0.3054413f, 0.2676446f, 0.3087005f, 0.4335333f, 0.2699548f, -0.1936595f, 0.2155424f, -0.0244499f, -0.1290853f, -0.0977101f, 0.0100826f, -0.2197585f, 0.1290883f, -0.2182716f, 0.3587145f, -0.0807994f, 0.0257245f, -0.0443490f, -0.2787423f, -0.0981988f, -0.0499378f, -0.4146736f, -0.0109206f, 0.1775609f, -0.2231404f, 0.0893070f, -0.3510574f, 0.1500120f, -0.1693519f, 0.2300808f, -0.3296406f, -0.1664434f, -0.1646197f, 0.1881983f, 0.0433482f, -0.1555108f, 0.2620141f, 0.2362694f, 0.1958244f, 0.1386536f, 0.1287732f, -0.1671340f, -0.2750603f, -0.1342636f, 0.0404080f, 0.0337972f, -0.0070597f, 0.1496027f, 0.1875678f, -0.0642385f, 0.1227783f, -0.1632341f, 0.0242361f, 0.1179425f, 0.2915024f, -0.1826781f, -0.0400254f, -0.0635359f, 0.0156720f, -0.0546407f, -0.0955374f, 0.1069616f, 0.0961298f, -0.2095875f, 0.0511133f, 0.0318931f, -0.0990788f, 0.0787346f, 0.0190970f, 0.0735936f, 0.0955217f, 0.0638365f, 0.1247673f, 0.3134410f, -0.0425472f, -0.2068480f, 0.1639069f, 0.0923116f, 0.0373153f, 0.0505004f, 0.0602386f, -0.0925477f, -0.2052030f, -0.1904066f, -0.1212830f, -0.1380056f, -0.1996122f, -0.0036537f, 0.0340790f, -0.2253069f, 0.0592866f, 0.1326134f, 0.0830716f, -0.0415875f, -0.0673428f, -0.2165044f, 0.2155026f, -0.1790877f, 0.0046032f, -0.2163932f, -0.0357057f, -0.1618074f, -0.1904027f, 0.1170762f, -0.2214147f, -0.1317622f, -0.1911657f, -0.0235315f, -0.0196022f, 0.0886586f, -0.1597260f, 0.0810018f, 0.1552211f, -0.0499098f, 0.1061716f, 0.2284945f, 0.0351386f, -0.0719981f, 0.2329891f, 0.1270726f, 0.1235559f, 0.0379363f, 0.0680399f, -0.2779019f, -0.2197884f, -0.1039914f, -0.0844275f, 0.0708632f, 0.1295961f, 0.1853268f, -0.2746675f, 0.0783554f, 0.0204437f, -0.0759308f, -0.0155079f, -0.0128941f, 0.0374224f, -0.0325681f, 0.2111479f, 0.2031657f, -0.0098327f, 0.2239644f, -0.0293360f, -0.0109035f, -0.2469169f, 0.1727738f, -0.0232457f, 0.0129733f, 0.1572510f, 0.1496691f, -0.0128909f, 0.0521796f, -0.1627287f, 0.0904326f, 0.0897800f, -0.2103778f, 0.2273481f, -0.1114955f, 0.0413615f, 0.2074094f, -0.1863022f, -0.2071106f, -0.1666932f, -0.0703134f, 0.2816462f, -0.1353435f, 0.0034302f, -0.1007519f, -0.2379399f, -0.0706508f, 0.2896334f, -0.0319058f, 0.2646858f, 0.1713869f, 0.0424760f, 0.1847250f, 0.1178847f, 0.0177193f, 0.0928628f, -0.1960772f, -0.1990295f, -0.0653197f, -0.1287890f, 0.0866603f, -0.0829224f, -0.2906407f, -0.0957358f, 0.2325181f, -0.1759318f, -0.0181704f, 0.0037196f, -0.0394481f, 0.0170142f, 0.2011832f, -0.1913402f, -0.1183075f, -0.1178808f, -0.2867383f, -0.1280483f, 0.2026873f, -0.1855837f, -0.1758579f, 0.0857060f, 0.2539825f, -0.0348634f, 0.1126374f, -0.1803711f, -0.2564929f, -0.1790447f, 0.2419013f, 0.1897622f, 0.0515217f, 0.1180307f, -0.0860247f, -0.1083975f, 0.2424623f, -0.0629356f, -0.1964995f, 0.1634288f, 0.0340850f, -0.0984494f, 0.0940134f, -0.0138711f, 0.1917371f, -0.1137534f, 0.1253167f, 0.2330649f, -0.0833209f, -0.0873740f, 0.1153577f, 0.1190186f, 0.1178170f, 0.2138367f, -0.0017469f, 0.2661912f, -0.2643089f, -0.2085568f, -0.1059496f, 0.2827358f, 0.1426063f, -0.1324262f, 0.0600768f, 0.0732936f, -0.1962888f, -0.1244014f, -0.0877452f, 0.0477377f, 0.1397845f, -0.1280799f, -0.0553473f, 0.1544566f, -0.1813381f, 0.1737702f, -0.2366492f, 0.0716841f, 0.1938902f, -0.0805483f, 0.2095993f, -0.1769344f, -0.3420989f, -0.2056700f, -0.1479299f, 0.1606408f, 0.0851935f, 0.0211732f, -0.1533095f, -0.2690183f, -0.0578214f, -0.2656274f, 0.1757096f, -0.1600512f, -0.0612031f, -0.1744679f, -0.2578792f, 0.0950660f, -0.0070856f, -0.0526617f, 0.2213128f, -0.1359954f, -0.0490394f, -0.1750302f, -0.1780317f, 0.0285320f, 0.1806335f, -0.1584236f, -0.0532890f, 0.2236232f, 0.2165749f, 0.1795757f, 0.2241371f, -0.2210900f, -0.0636198f, 0.0662950f, -0.0686630f, -0.0846208f, -0.1964226f, 0.0222872f, -0.0668430f, 0.2729992f, -0.1385361f, 0.2398697f, -0.0354558f, -0.1893746f, 0.1167951f, -0.2851757f, -0.1689142f, -0.1835207f, -0.3452306f, 0.0133301f, -0.1410595f, 0.0916463f, 0.4035941f, -0.1001191f, -0.0091681f, 0.0041309f, -0.0323012f, 0.0714966f, -0.1101958f, -0.0641502f
};

const float net_2_bias[32] = {
    -0.0698017f, 0.1289485f, 0.1696797f, -0.0133377f, -0.2255208f, 0.2052259f, 0.2144716f, -0.0851538f, -0.1312553f, -0.1989451f, 0.1454278f, 0.1722241f, 0.1165578f, -0.2141126f, -0.0389011f, 0.0703583f, -0.1903345f, 0.0301211f, -0.1078472f, 0.1039305f, -0.1447111f, -0.1191876f, 0.0693932f, 0.1841842f, 0.0088846f, 0.1900852f, 0.0372694f, -0.0831479f, 0.1037180f, -0.0983075f, -0.1572941f, -0.0868199f
};
#define SIZE_NET_2_BIAS 32

const float net_4_weight[512] = {
    0.0987411f, 0.1124081f, 0.1553012f, 0.1224421f, -0.0196705f, -0.0933201f, -0.1216810f, -0.0351133f, 0.1316510f, -0.1592298f, 0.1819099f, -0.0767345f, -0.0302711f, 0.0587550f, 0.0844507f, 0.0003808f, 0.0940717f, 0.1685949f, 0.2422355f, 0.1286496f, -0.0789883f, -0.0911444f, -0.1278125f, 0.2205290f, 0.1607516f, 0.1785992f, -0.1316427f, 0.0988734f, 0.2854797f, 0.0797487f, -0.0785339f, 0.0133575f, -0.0093821f, 0.0584450f, 0.0073233f, 0.0063956f, 0.2023202f, 0.1038060f, 0.1465864f, -0.0751078f, 0.1355935f, -0.0433876f, -0.0368272f, -0.1908643f, -0.1256820f, 0.1995488f, 0.1129643f, 0.1373348f, 0.1042687f, -0.0548249f, 0.1450255f, -0.1729961f, 0.1010423f, -0.0300203f, -0.0526671f, 0.1440507f, -0.1065287f, -0.1164994f, -0.0736937f, 0.0275108f, 0.1373590f, 0.1635081f, -0.1456761f, 0.0791264f, -0.3064678f, -0.0107988f, 0.1615460f, -0.0671579f, -0.1088218f, 0.1193827f, 0.0692341f, 0.0186983f, -0.0948223f, -0.1932240f, -0.2012036f, -0.1027914f, -0.0232365f, -0.3061888f, 0.0822554f, -0.0088848f, 0.0994152f, -0.1331728f, -0.1444786f, 0.1868050f, -0.1423787f, 0.1404577f, 0.0356716f, -0.1854685f, -0.2131992f, -0.1484822f, -0.0464251f, 0.1252260f, -0.3478214f, -0.0202815f, 0.1902802f, 0.1055133f, -0.0233169f, 0.2134373f, 0.1326076f, -0.1301087f, 0.2160341f, 0.0106735f, 0.0343573f, 0.0350861f, -0.0082600f, -0.1379364f, 0.2344198f, 0.0977653f, -0.1202395f, -0.0291648f, 0.0790560f, -0.0731197f, -0.1169754f, 0.1433694f, 0.1834701f, 0.0825379f, -0.0317282f, -0.2187726f, -0.1881011f, -0.0364135f, 0.0086571f, 0.0877521f, -0.2204418f, -0.0584941f, 0.2814649f, 0.1606462f, 0.0921709f, -0.0877959f, -0.2180595f, 0.1030344f, -0.0504008f, 0.0463208f, -0.1555346f, -0.0515922f, -0.1206768f, 0.0286806f, -0.1008643f, 0.0257416f, -0.2978440f, -0.1074251f, -0.0827788f, -0.3277488f, 0.1966335f, -0.0190989f, 0.1334831f, 0.1137927f, -0.2914917f, -0.0301144f, -0.0798631f, 0.0613375f, -0.0700928f, -0.0772325f, -0.0215081f, -0.0960156f, 0.1482647f, -0.0826152f, -0.3345187f, -0.1969171f, 0.2069210f, -0.0351559f, -0.0326997f, -0.0999825f, 0.0993788f, -0.1754829f, -0.0394757f, -0.0180940f, -0.0652247f, 0.0449825f, 0.1726720f, 0.1845720f, -0.1801998f, 0.1921181f, 0.1905949f, -0.0533572f, -0.2289889f, 0.0441644f, -0.0134185f, -0.1078785f, -0.0144888f, -0.1505684f, -0.0148094f, 0.1212350f, -0.0581041f, -0.2193652f, 0.1121003f, -0.1103539f, -0.0722161f, -0.0026983f, -0.3536502f, 0.1331187f, 0.2024729f, -0.0202165f, -0.1724391f, -0.2439836f, 0.0638249f, 0.1081822f, -0.0507954f, -0.0323256f, -0.1388461f, -0.2148336f, -0.0843561f, 0.2517856f, -0.2644984f, -0.0107952f, 0.0436496f, 0.0386886f, -0.0556191f, 0.0455322f, 0.1097187f, -0.0944128f, -0.0981037f, -0.0024450f, 0.1057651f, -0.0222584f, 0.2314550f, -0.2213022f, -0.1303326f, -0.0105065f, -0.0196500f, -0.0869990f, -0.1708362f, -0.0673349f, 0.1450911f, 0.1211439f, -0.2387091f, -0.0944980f, 0.0492875f, 0.0981549f, 0.1057871f, -0.1568468f, 0.1402535f, 0.0247485f, 0.1361302f, 0.0407487f, 0.0114851f, 0.0640947f, -0.0912037f, -0.0711095f, 0.0251967f, -0.0701764f, -0.0907589f, -0.0763786f, -0.0115169f, 0.1649266f, -0.0063801f, 0.0685205f, -0.1052415f, -0.1434779f, -0.1711788f, -0.1709644f, 0.1601455f, 0.1580990f, -0.2110808f, 0.0567545f, 0.1429189f, 0.1484365f, 0.0101557f, -0.0671465f, -0.0998580f, -0.0575543f, 0.0330744f, 0.0900994f, 0.0676399f, 0.1104845f, 0.1469498f, -0.1488872f, -0.2967249f, 0.1313872f, 0.0857325f, 0.0189638f, 0.0193562f, 0.0751589f, -0.0636164f, -0.0160314f, -0.0408606f, 0.1770933f, -0.0271778f, -0.0545482f, 0.1875328f, 0.0762243f, 0.0923375f, 0.1522536f, 0.2281429f, 0.0536134f, -0.2457544f, -0.1354210f, 0.1225661f, -0.0942066f, -0.0467581f, -0.1172066f, -0.1804782f, -0.0740313f, 0.0686905f, -0.1516209f, 0.0668693f, -0.0129392f, 0.1942631f, 0.0919849f, 0.0173848f, 0.2084751f, -0.0799794f, -0.0544900f, 0.0356797f, 0.0240059f, -0.0930469f, 0.1173589f, 0.0460647f, -0.0566799f, -0.1084867f, -0.1094551f, 0.1285056f, -0.2320556f, -0.0842341f, 0.1309492f, 0.1818609f, -0.0121146f, -0.1202384f, -0.1039116f, -0.0148150f, 0.0107215f, 0.2873464f, 0.0022142f, -0.0782227f, 0.1872528f, -0.0071025f, 0.0211723f, -0.1850830f, 0.1703186f, -0.1431251f, 0.0110735f, 0.0279471f, 0.0058408f, 0.1101563f, 0.2619080f, -0.1109021f, 0.0932592f, -0.0947878f, -0.1300210f, -0.0025853f, -0.1793823f, -0.0842044f, 0.0334820f, 0.0673827f, 0.1859182f, 0.2296764f, -0.0283123f, 0.0154259f, -0.1403114f, 0.3138777f, 0.1346380f, -0.0132612f, 0.0298632f, 0.0877878f, 0.0338215f, 0.0579892f, 0.0554443f, -0.0477225f, -0.1426046f, -0.1226729f, -0.1864795f, 0.1235741f, 0.1461486f, -0.2868097f, -0.0571332f, 0.1326148f, -0.1580900f, -0.2751687f, 0.1440801f, -0.1188678f, -0.1379525f, 0.0366259f, 0.1021339f, 0.1766810f, 0.1501151f, 0.0081325f, -0.0725237f, 0.1251718f, -0.0392927f, 0.1091977f, 0.2076434f, -0.1481726f, 0.0696660f, -0.1194327f, -0.0682681f, -0.0475974f, -0.0359985f, 0.1003767f, -0.1465298f, 0.0572381f, 0.0182451f, 0.1447728f, -0.0190820f, 0.0389401f, 0.0402416f, -0.1469989f, 0.0656634f, -0.0915840f, -0.3096556f, 0.1253749f, 0.0452376f, -0.0128045f, 0.0697252f, -0.1964673f, 0.0007408f, -0.0067767f, 0.2148892f, -0.1662806f, -0.1943242f, 0.0487702f, 0.1044054f, -0.0891219f, 0.0994171f, -0.1976546f, 0.0885949f, 0.0453014f, -0.1601208f, -0.1047426f, -0.1757191f, -0.1828542f, -0.1270486f, -0.0475738f, -0.1736450f, 0.0478458f, -0.1854780f, 0.1232252f, 0.0490976f, -0.3054244f, -0.0826976f, 0.0783592f, -0.0299153f, -0.1462640f, -0.0493680f, 0.1997034f, -0.1934412f, -0.0527510f, -0.0798142f, -0.1215203f, -0.0953172f, -0.1364786f, -0.0424757f, -0.0891488f, -0.0702683f, -0.0617100f, 0.0379178f, -0.1972834f, 0.0899493f, -0.0360650f, -0.0805132f, 0.0286404f, 0.1400749f, 0.1178238f, -0.0399542f, 0.2167425f, -0.0458236f, 0.0507940f, 0.0235155f, 0.0995544f, -0.1985534f, 0.2913274f, 0.1393502f, -0.0492952f, 0.1794383f, 0.1048442f, 0.0440028f, 0.1513860f, -0.0585550f, 0.2378083f, -0.1594709f, 0.0630335f, -0.1294175f, 0.0997097f, -0.0600701f, -0.1486726f, 0.0206195f, -0.1502724f, -0.1878108f, 0.2513415f, 0.1575269f, 0.0776123f, -0.1088946f, -0.2729147f, 0.0648738f, 0.1793285f, -0.1311383f, -0.2313415f, -0.1987143f, 0.0636422f, -0.1942182f, 0.0503833f, -0.0737020f, -0.1521944f, 0.1186430f, -0.1113052f, -0.2071721f, 0.1781218f, -0.0035516f, 0.0656400f, -0.1123797f, -0.1402674f, 0.0389420f, -0.1471775f, 0.0893452f, -0.0679066f, 0.0018743f, 0.0866473f, -0.1298248f, 0.2385538f, 0.0595696f, -0.2096914f, 0.0693064f, -0.0746147f, -0.0605338f
};

const float net_4_bias[16] = {
    -0.1029298f, -0.0601011f, 0.1574320f, -0.0955198f, 0.0535872f, 0.0809298f, -0.0830372f, -0.1126344f, 0.1656340f, -0.1318315f, 0.0994234f, -0.1194431f, -0.1404369f, -0.0700664f, 0.1252391f, 0.1734559f
};
#define SIZE_NET_4_BIAS 16

const float net_6_weight[16] = {
    0.3869849f, 0.2396282f, -0.3543200f, 0.4135963f, -0.1991267f, -0.3507427f, -0.4223828f, -0.1515756f, -0.2786885f, -0.1529199f, 0.3351793f, -0.3940198f, -0.3397124f, -0.1221629f, 0.3877902f, -0.4000045f
};

const float net_6_bias[1] = {
    0.0400394f
};
#define SIZE_NET_6_BIAS 1

#endif // _MODEL_WEIGHTS_H
