#ifndef _MODEL_WEIGHTS_H
#define _MODEL_WEIGHTS_H

// Auto-generated weights from PyTorch model

#define MAX_ALTITUDE 10000.0f
#define MAX_VELOCITY 500.0f

const float net_0_weight[64] = {
    0.3285513f, 0.4015252f, -0.4063768f, 0.3820673f, -0.3839613f, 0.0083514f, 0.6062966f, -0.5587295f, -0.4883325f, -0.6377688f, 0.7009365f, -0.0233683f, 0.0211382f, 0.5063589f, -0.3546543f, 0.5797464f, 0.0938724f, 0.7072431f, -0.1372628f, -0.7119331f, 0.3151188f, 0.0156185f, -0.4013472f, 0.5199872f, -0.6759785f, -0.5058697f, -0.3491648f, 0.3654656f, -0.5359632f, -0.0316073f, -0.7011558f, 0.5124946f, 0.5433499f, -0.2027578f, 0.2000783f, -0.8343739f, 0.3661192f, -0.0850827f, 0.0738337f, -1.1969361f, -0.5261430f, -0.5824178f, -0.6597596f, 0.2725933f, 0.7317917f, 0.1524404f, 0.1794408f, -0.5682757f, -0.6270360f, 0.1377093f, -0.4681519f, -0.3321756f, 0.4025738f, -1.2209646f, 0.5685966f, 0.3396721f, 0.1784321f, -0.3135860f, -0.5615891f, -0.1928660f, -0.0999436f, 0.1983188f, -0.6577034f, 0.3965899f
};

const float net_0_bias[32] = {
    -0.5280549f, 0.3006087f, -0.0029099f, -0.0606350f, -0.1470903f, 0.0867842f, 0.2379872f, -0.3626955f, 0.2905438f, 0.1180548f, 0.2008922f, 0.2108858f, -0.5825255f, -0.4976825f, 0.2335683f, -0.5908914f, 0.1905960f, 0.1358310f, -0.3901145f, -0.2770473f, -0.1462789f, -0.5188267f, 0.4832946f, 0.3992999f, -0.0783148f, 0.5963868f, -0.4749758f, 0.2739728f, 0.3016632f, 0.5532984f, 0.2690966f, -0.1796604f
};
#define SIZE_NET_0_BIAS 32

const float net_2_weight[1024] = {
    -0.1454073f, -0.0304515f, -0.1773537f, -0.1066351f, 0.0794243f, -0.0118464f, -0.1169818f, 0.1197658f, 0.0522899f, -0.1446832f, 0.0993584f, 0.0535579f, 0.0361685f, -0.0040994f, 0.0089698f, 0.1526570f, 0.0953869f, 0.0373584f, -0.0743266f, 0.1466146f, -0.0764314f, 0.0281529f, 0.1194143f, 0.1506441f, -0.1873705f, -0.1636165f, 0.0951555f, 0.0225661f, 0.0844787f, -0.1830906f, 0.1402909f, -0.0972368f, -0.1305719f, 0.0822488f, 0.0265608f, -0.0495478f, -0.0182074f, -0.1156960f, 0.1730814f, -0.0292652f, 0.1119989f, -0.0726823f, 0.0831144f, -0.0483091f, -0.1294546f, -0.0836819f, 0.0579723f, -0.0103959f, -0.1272846f, -0.0792379f, 0.0204709f, -0.1322163f, 0.1244039f, -0.1162756f, -0.0040722f, 0.0073922f, 0.1151854f, 0.1231662f, -0.0911413f, -0.0725834f, 0.1762069f, 0.0170857f, -0.0863674f, 0.0163200f, -0.1077382f, 0.1823426f, 0.1174238f, -0.0373117f, -0.0660501f, 0.2156571f, 0.1766618f, -0.1142644f, 0.0823276f, -0.0338747f, 0.1225302f, 0.1246042f, 0.1124275f, 0.1327777f, -0.1319039f, 0.1438547f, 0.1528381f, 0.0286745f, 0.0427393f, 0.1104507f, 0.0825028f, 0.0307790f, -0.1144024f, -0.0832480f, -0.1897557f, -0.0923937f, 0.0231582f, -0.0756323f, -0.1435191f, -0.1853618f, -0.1428379f, -0.0284855f, 0.0315958f, -0.1193296f, -0.0151118f, 0.1537619f, -0.1475419f, 0.1619104f, 0.0969119f, -0.1536537f, 0.0197990f, 0.0380522f, 0.1350787f, 0.1454066f, 0.1882243f, -0.1620768f, 0.0364256f, 0.0615020f, -0.0882739f, 0.0496889f, 0.0112617f, 0.1032923f, 0.1610038f, 0.0095881f, -0.0108108f, -0.1696649f, -0.1109822f, 0.1072038f, 0.0053330f, 0.0806342f, -0.1478380f, -0.2462420f, -0.1637669f, -0.0433881f, 0.1836106f, -0.0083222f, -0.2173824f, -0.1038051f, -0.0349167f, -0.0470361f, -0.0615925f, -0.0406707f, -0.1511012f, -0.0784826f, 0.1481389f, 0.1044082f, 0.1573540f, -0.1249869f, -0.1221860f, 0.1473603f, 0.0029511f, -0.1174422f, 0.1125653f, 0.0586386f, 0.1497075f, -0.0950012f, -0.0083067f, -0.0958026f, -0.0525585f, 0.0649919f, 0.0352660f, -0.1872427f, 0.1569820f, -0.0300136f, 0.0718265f, 0.0271696f, -0.0560161f, 0.0404943f, 0.0977894f, 0.1807054f, -0.1808708f, -0.1209468f, 0.0040178f, 0.1773622f, 0.0315310f, 0.0657435f, 0.0240196f, 0.0412932f, 0.0068373f, -0.0998219f, 0.0828588f, 0.1709155f, 0.1123366f, -0.1582912f, -0.0941695f, 0.0340834f, 0.1281418f, -0.0134224f, -0.2531544f, 0.0398225f, -0.0067199f, 0.0978423f, -0.0127933f, -0.1147735f, -0.0533205f, 0.1579473f, 0.1248951f, 0.1577670f, -0.1559921f, 0.1366377f, 0.0854867f, 0.1086158f, -0.1213637f, -0.1645178f, 0.0319771f, 0.0076341f, -0.0514444f, -0.0071043f, -0.0666633f, 0.2209502f, -0.1265407f, 0.0460317f, -0.0143080f, -0.0548575f, 0.0178756f, 0.0991100f, -0.1124486f, 0.0494644f, 0.0966908f, 0.0090434f, -0.0505004f, 0.0939460f, 0.0075637f, 0.0485800f, 0.0429536f, -0.0709057f, 0.0049076f, 0.3109214f, -0.0183705f, 0.1788485f, -0.0885867f, -0.1064944f, 0.0829455f, -0.0798772f, 0.0772584f, 0.0232612f, -0.1320252f, -0.0906531f, 0.0483571f, -0.1507771f, -0.1583282f, 0.1696716f, 0.1077435f, 0.0189634f, 0.0103838f, 0.0720560f, 0.0704596f, 0.0911032f, 0.0210052f, -0.0055665f, 0.1002433f, -0.0208956f, 0.0645755f, -0.1515722f, -0.1128361f, 0.0410313f, 0.0521225f, -0.1693679f, 0.0177461f, -0.0865311f, 0.0499275f, -0.0323385f, 0.1662555f, -0.1576594f, 0.0879388f, -0.0091008f, -0.1019947f, -0.0933783f, -0.1640288f, 0.0856002f, -0.0388261f, 0.1846849f, 0.0722211f, -0.0752425f, 0.0661353f, 0.0474981f, 0.1289034f, 0.0200141f, 0.0007239f, -0.1319267f, -0.1209818f, 0.0718584f, -0.0153300f, -0.1931821f, 0.1398665f, -0.0135705f, -0.1393964f, -0.0696594f, 0.1376370f, 0.1095660f, -0.1552494f, -0.1836317f, 0.0086134f, 0.1106136f, -0.1463629f, 0.1802428f, 0.1336433f, 0.1501343f, -0.0993048f, -0.1612392f, 0.0359137f, 0.0099492f, 0.1328622f, 0.1267764f, -0.0332566f, -0.1229949f, 0.0311220f, 0.1279172f, 0.1936172f, -0.0317076f, 0.0067690f, 0.1395801f, -0.0508319f, -0.2230930f, -0.0867647f, 0.0616563f, 0.1907599f, 0.1155725f, 0.1245589f, 0.1200133f, -0.2052876f, -0.0262199f, 0.0245215f, 0.1766871f, -0.0212811f, 0.0203316f, -0.3473319f, -0.1714846f, 0.0808701f, 0.1781989f, -0.0183597f, -0.0458688f, 0.0168923f, -0.1698797f, 0.0519740f, 0.2356622f, 0.0012409f, -0.1534318f, 0.1442592f, -0.1648858f, -0.0208389f, -0.0611164f, 0.0938012f, 0.2969697f, 0.0489508f, 0.1863041f, -0.0933483f, -0.0168001f, -0.1448949f, 0.2290970f, -0.1576193f, 0.2939541f, 0.2397873f, -0.1762134f, 0.2307393f, 0.2248277f, 0.0952602f, -0.0566645f, 0.1208513f, -0.1593039f, 0.0547978f, -0.1159288f, 0.0155128f, -0.1360963f, 0.0446009f, -0.1251489f, 0.0918254f, 0.0637161f, -0.0791655f, -0.0597560f, -0.0120224f, -0.1199847f, 0.1422422f, 0.1023063f, -0.2022046f, 0.0693231f, 0.0627967f, -0.1233841f, 0.0972658f, 0.1023846f, 0.1557741f, 0.0504945f, 0.1192890f, 0.0055156f, -0.0168155f, 0.0722156f, -0.0168305f, 0.2138317f, -0.0106037f, 0.1424807f, -0.0150783f, -0.1655819f, 0.1079247f, 0.1068254f, 0.2512571f, -0.0226892f, -0.1124799f, 0.0591269f, -0.0975632f, 0.0645980f, 0.1064024f, -0.1875306f, 0.0193387f, 0.0872811f, -0.0267594f, 0.0883493f, -0.1502260f, -0.1474685f, -0.1429615f, 0.2712832f, 0.2884524f, -0.0623925f, -0.0941149f, -0.0632847f, -0.0725268f, -0.0996043f, 0.2924767f, -0.0501012f, 0.1694145f, 0.2400886f, 0.0164572f, 0.1630147f, 0.1047844f, 0.1034210f, 0.1456520f, 0.1009840f, 0.1645048f, 0.0057234f, -0.0747571f, -0.1188617f, 0.1602618f, 0.1080060f, 0.0007689f, 0.0686834f, -0.0443852f, -0.0423885f, -0.0899307f, -0.0956725f, 0.0471299f, -0.0321887f, -0.0225164f, 0.0909382f, 0.1176219f, 0.0762348f, -0.0519026f, 0.1442382f, -0.1529512f, 0.0907067f, 0.0011806f, -0.0000366f, 0.0300652f, 0.2568099f, -0.0944327f, 0.0989843f, -0.0276799f, -0.0943106f, 0.1053164f, -0.0435096f, 0.0387827f, -0.1003815f, 0.0093382f, -0.1638092f, 0.1284714f, 0.1637048f, -0.0576761f, -0.1304616f, -0.1198947f, 0.0011954f, 0.1588278f, -0.0164589f, 0.0158124f, 0.0600057f, 0.1013995f, 0.0506998f, -0.1809481f, 0.0813644f, 0.0074164f, -0.0648576f, -0.0637101f, -0.0259503f, 0.0064013f, 0.0407534f, 0.0866586f, 0.2178433f, -0.1374439f, 0.1003233f, 0.0850374f, -0.0920676f, 0.2156397f, 0.0987673f, -0.1652559f, -0.1187962f, -0.0715367f, 0.1506186f, -0.0266724f, 0.0535196f, -0.0905666f, 0.1599173f, 0.0307856f, 0.0988558f, 0.1166886f, 0.1383044f, -0.0172028f, -0.0295353f, 0.1666970f, 0.0125089f, 0.0554187f, 0.0397492f, -0.0619776f, 0.1726670f, -0.0356192f, 0.1132627f, 0.1393306f, 0.0298680f, -0.1525737f, -0.0212990f, 0.0594014f, 0.0577396f, 0.0595733f, 0.1825359f, 0.1011720f, 0.1176815f, -0.0236546f, 0.0220554f, -0.1022255f, -0.0903952f, -0.0731531f, 0.0383608f, 0.0645579f, -0.0540788f, -0.0226387f, -0.0420032f, -0.0137922f, 0.1253625f, -0.1104252f, 0.0582154f, -0.1828950f, -0.0341225f, -0.1986228f, 0.2277969f, -0.1945190f, -0.0444161f, 0.1927865f, 0.1935363f, 0.0838090f, 0.0313028f, -0.1389250f, 0.0933815f, 0.1376448f, -0.0382808f, -0.0141379f, -0.1608276f, -0.0522173f, -0.1278075f, -0.0666125f, 0.0886964f, 0.0123408f, -0.0108869f, -0.0576459f, 0.0862844f, -0.0989405f, 0.1362805f, -0.0230228f, 0.0350702f, -0.0663803f, -0.1376649f, -0.1771137f, 0.0773169f, -0.1838556f, 0.1204199f, -0.1109111f, 0.1068245f, -0.0065870f, -0.1455757f, -0.1403035f, 0.1358501f, 0.0621001f, -0.1130429f, 0.1416648f, 0.1744148f, -0.0704390f, 0.1544362f, -0.0671753f, -0.1378901f, -0.0760745f, 0.1152318f, 0.0160980f, -0.0738426f, 0.0637780f, -0.0950422f, -0.0773819f, 0.0420855f, -0.1349157f, 0.1630868f, -0.1051065f, 0.1904640f, 0.1722367f, 0.0470168f, -0.1431773f, -0.1533048f, -0.0208214f, 0.0157381f, 0.0908184f, 0.0859592f, -0.0400066f, -0.0303377f, 0.1783770f, 0.0892584f, -0.0746439f, -0.0238093f, -0.1946943f, 0.1203196f, -0.1076464f, 0.0365273f, -0.1392836f, 0.0315669f, 0.1773835f, 0.1233345f, -0.1492835f, -0.0986844f, -0.0946003f, -0.0716725f, -0.1198519f, 0.0254149f, -0.2670111f, 0.0729848f, -0.0042403f, -0.0544864f, 0.2018373f, 0.0436954f, 0.0800892f, -0.1770805f, 0.1119272f, -0.0405780f, -0.0337543f, -0.0322318f, -0.0676584f, 0.0480212f, 0.2049972f, -0.1094682f, -0.1204876f, 0.0520279f, 0.0750954f, 0.2043226f, 0.0308659f, 0.1184608f, -0.1344040f, -0.1297680f, 0.0270749f, -0.0329629f, -0.0273430f, -0.1546972f, 0.0930023f, 0.0460528f, 0.0263131f, 0.0994829f, -0.0863779f, -0.1580210f, -0.0764180f, -0.0058412f, 0.1763198f, -0.0036047f, -0.0265116f, 0.0644139f, -0.1030773f, -0.0567116f, 0.0616161f, 0.0940910f, -0.1779450f, -0.0896161f, 0.1350107f, 0.0248298f, -0.1476558f, 0.1542414f, -0.1010115f, 0.0317126f, -0.0809403f, 0.1721589f, -0.0792775f, 0.1346367f, -0.0436863f, 0.1543793f, 0.0023622f, 0.0764876f, -0.1396872f, -0.1559746f, 0.1414947f, 0.1668540f, -0.0323560f, -0.1718367f, 0.0956611f, 0.0905749f, -0.1716775f, 0.1219419f, 0.0644597f, -0.0431034f, 0.1575615f, 0.1031581f, -0.0454161f, -0.0927690f, -0.1923816f, 0.1512728f, -0.1166635f, -0.0930085f, -0.0724872f, 0.0114708f, -0.1606443f, -0.0054178f, -0.1640343f, -0.0794974f, 0.0280897f, 0.1380320f, 0.1749555f, -0.0658749f, -0.1711610f, -0.1147420f, -0.1350113f, -0.0446052f, 0.0334650f, -0.0245444f, 0.0797266f, -0.0573533f, -0.1297946f, -0.1323427f, 0.1364404f, 0.0948353f, 0.1407841f, 0.1472038f, 0.1390938f, 0.0597662f, 0.0119395f, 0.1848474f, -0.1900011f, -0.1497131f, -0.0598120f, 0.1575855f, 0.0489757f, -0.1618506f, -0.1377494f, 0.0294924f, 0.1555520f, 0.0172610f, -0.1488977f, -0.0204904f, 0.1201962f, -0.0271571f, 0.1270390f, -0.1670927f, -0.0988701f, 0.0185790f, -0.1123848f, 0.1626578f, -0.2258296f, -0.0621940f, 0.0025720f, -0.0345756f, 0.0779931f, 0.1260547f, -0.0758906f, -0.1662499f, 0.0317227f, 0.0754532f, -0.0249166f, -0.0284878f, 0.0135389f, -0.0869510f, 0.1545952f, -0.0266937f, -0.1805559f, 0.1116504f, -0.1414369f, 0.0111211f, -0.0248682f, 0.0809865f, -0.0223114f, -0.1262802f, 0.0945749f, -0.0179687f, -0.0362507f, 0.0187372f, 0.0239207f, 0.0119734f, -0.0169121f, -0.1136219f, 0.2111740f, -0.0528967f, -0.0908051f, 0.0865966f, -0.0511257f, 0.0827023f, 0.0254002f, -0.1075267f, -0.0775886f, 0.0979928f, 0.1423109f, -0.1825892f, 0.0790961f, -0.0665797f, 0.1347450f, 0.0179942f, -0.0154899f, 0.0838838f, 0.0424814f, -0.1047538f, -0.1969908f, -0.1382756f, -0.1767291f, 0.1906707f, -0.0830679f, -0.0337888f, -0.0917522f, 0.1756533f, 0.1116565f, -0.0301582f, -0.0369971f, 0.1324008f, 0.1603507f, 0.1452982f, -0.0310779f, -0.1194130f, 0.0249376f, -0.0993907f, 0.0460201f, 0.0309251f, -0.1668233f, -0.0801699f, 0.1327990f, -0.0095336f, 0.0344934f, -0.0583763f, 0.1508261f, 0.1289884f, -0.1392543f, 0.1043324f, 0.0218326f, 0.1231909f, 0.0012336f, -0.0439626f, -0.1209280f, -0.0370424f, -0.2072015f, -0.0117924f, -0.1483709f, 0.1286146f, -0.0567729f, 0.1095485f, -0.0182027f, 0.1335649f, 0.0646832f, -0.1353260f, -0.1004985f, 0.0024198f, 0.0409082f, -0.1790773f, -0.1170691f, -0.0132473f, 0.1032081f, 0.0259511f, -0.1653721f, -0.1350627f, 0.2244551f, -0.0270770f, -0.0401091f, 0.0572898f, -0.1500503f, -0.1258854f, -0.0679076f, 0.0741631f, -0.0445997f, -0.0996419f, -0.0516920f, 0.1450423f, -0.1796167f, -0.0419364f, -0.0598284f, 0.0402816f, -0.0143183f, 0.0733816f, 0.0383178f, 0.1659123f, -0.0606482f, 0.0452747f, 0.1667542f, -0.1611044f, -0.1485566f, -0.0567231f, -0.0927573f, 0.1503252f, 0.1790917f, -0.0590578f, -0.1033024f, 0.0362703f, -0.0710286f, -0.1195427f, -0.0416635f, -0.0507120f, 0.0753227f, 0.0262910f, -0.0664768f, -0.2905673f, -0.0215197f, 0.0196833f, 0.1533304f, 0.1471748f, 0.0754422f, -0.1182849f, 0.0954392f, 0.1413434f, 0.0132989f, -0.0879574f, -0.0552042f, -0.1108855f, 0.0866676f, -0.0969400f, 0.0616198f, -0.0317132f, -0.1559365f, 0.0273719f, -0.1024148f, 0.1365993f, -0.0695779f, 0.1235793f, -0.0063887f, -0.1235404f, -0.1008806f, -0.0600187f, 0.0631009f, -0.1881532f, 0.1980703f, 0.0645664f, 0.1024150f, -0.1873910f, 0.1323051f, -0.0471155f, 0.2780095f, 0.0640117f, -0.0006701f, -0.3299167f, -0.2369946f, -0.0277871f, 0.3262776f, 0.2886254f, 0.4148913f, -0.3893669f, -0.0610196f, 0.1050151f, 0.0095362f, 0.1755005f, -0.2719428f, 0.0467677f, -0.0580454f, -0.3401954f, -0.1161449f, -0.3975301f, -0.2385790f, 0.2062425f, 0.0668796f, -0.2645485f, 0.0155695f, -0.0410968f, -0.1556148f, -0.0196268f, -0.2463976f, -0.1780143f, 0.2894053f, 0.1822399f, 0.0590593f, 0.0268489f, -0.1937350f, -0.1170033f, 0.0289077f, 0.0336926f, 0.1295422f, -0.0877302f, 0.0687756f, 0.0117148f, -0.1377460f, 0.0582394f, -0.1081783f, -0.0691379f, -0.1879781f, -0.0050805f, -0.1416813f, 0.1750245f, 0.1749028f, 0.0727299f, -0.0913462f, -0.1037724f, -0.1281226f, 0.1058435f, -0.0482860f, -0.1782904f, -0.1015047f, 0.0222567f, 0.0233482f, -0.1434869f, -0.1346561f, 0.0045427f, -0.1534258f, 0.0168894f, 0.0489731f, 0.1013780f, 0.0373933f, -0.2291959f, -0.1081599f, -0.0070070f, -0.0307995f, 0.0700368f, 0.0263049f, 0.0605416f, -0.2043249f, -0.0549341f, 0.0306573f, -0.0652937f, 0.0818852f, -0.1558721f, -0.1630500f, -0.1445344f, 0.0351367f, -0.0241380f, -0.0428039f, 0.1622533f, -0.0885366f, 0.1656408f, -0.0336240f, 0.0707870f, -0.0968105f, 0.0709232f, -0.1471744f, 0.0171842f
};

const float net_2_bias[32] = {
    0.0352561f, 0.0795615f, 0.0013229f, 0.0491970f, 0.1581508f, 0.0005422f, 0.1858583f, -0.0122851f, 0.2333348f, -0.0763765f, 0.1087274f, -0.0401282f, 0.0011885f, 0.0996082f, 0.0865186f, -0.0196425f, -0.0932482f, -0.1367594f, 0.0696944f, -0.1619235f, -0.0986333f, -0.1865363f, -0.1416234f, -0.0395360f, 0.0408232f, 0.1888083f, 0.1127385f, 0.0580250f, 0.0494262f, 0.0661838f, -0.0895989f, 0.1912234f
};
#define SIZE_NET_2_BIAS 32

const float net_4_weight[1024] = {
    0.0557883f, -0.1823527f, 0.0601345f, 0.0117531f, -0.0266524f, -0.1183862f, 0.1623512f, 0.1627951f, -0.0194391f, -0.1733211f, -0.0224277f, -0.0674816f, -0.0040975f, -0.1696485f, 0.0498411f, 0.0752273f, -0.1446375f, -0.1145776f, -0.0118191f, -0.0347235f, -0.1534873f, -0.1502992f, 0.0229932f, 0.1610841f, 0.0976474f, -0.1323364f, -0.0156086f, 0.0032253f, 0.1580054f, 0.0636360f, -0.0356318f, -0.0642747f, 0.1082120f, -0.0539117f, 0.0027971f, -0.1116551f, 0.0624064f, -0.0141101f, 0.0002749f, -0.0715857f, 0.1602079f, -0.2024567f, 0.0248976f, -0.0738607f, 0.0475139f, -0.1099496f, 0.0943745f, 0.0730764f, 0.0465193f, -0.0189191f, -0.0331721f, 0.0577863f, -0.1373061f, 0.1721439f, 0.0601031f, 0.0672821f, -0.1693470f, -0.1037021f, 0.1050763f, -0.1621566f, 0.0885030f, 0.0346708f, -0.1778252f, -0.0924636f, 0.1612747f, -0.0572808f, 0.2015570f, 0.0019173f, 0.1840526f, 0.1024668f, -0.0058824f, 0.1895023f, 0.1263045f, -0.0368068f, -0.1516900f, -0.1515442f, 0.1351040f, 0.0615796f, -0.1141703f, 0.0449588f, -0.1199619f, -0.0613239f, -0.0413220f, -0.0404194f, 0.1588812f, 0.1281198f, -0.0573224f, 0.0134539f, 0.0668980f, -0.0756257f, 0.1343099f, 0.0446352f, 0.1624407f, -0.0251233f, -0.0814183f, -0.1257801f, 0.0538313f, 0.1527173f, -0.0430644f, 0.1511802f, 0.1131524f, -0.1627655f, 0.0096812f, 0.0541489f, 0.0904111f, -0.3071383f, 0.0274236f, -0.0524024f, 0.1064692f, 0.0041247f, -0.0356187f, -0.1752176f, 0.0239640f, -0.1021977f, -0.0330869f, -0.1660073f, -0.0758438f, -0.0169390f, -0.0031357f, 0.0819274f, -0.0781873f, -0.0714527f, 0.1003691f, -0.0609933f, 0.1460900f, 0.1010951f, -0.1745704f, -0.0051759f, 0.0873808f, -0.0561517f, -0.0782329f, -0.0744159f, -0.1696097f, -0.0101568f, 0.0048417f, -0.0105089f, -0.1926627f, -0.0037089f, -0.0616353f, 0.0903805f, 0.1648830f, -0.0770591f, -0.1582599f, 0.1344206f, 0.1165394f, 0.1464892f, -0.0769815f, 0.2155812f, -0.0325234f, -0.0112770f, 0.0808134f, 0.0451105f, -0.1207855f, -0.1905174f, -0.0082660f, 0.0560888f, 0.0495111f, 0.0608938f, 0.0469934f, -0.0230031f, -0.0062418f, -0.0346087f, 0.1211980f, -0.0410129f, -0.0603853f, 0.1093268f, 0.1349028f, 0.0105215f, -0.0140890f, -0.2065105f, 0.0893959f, -0.0057670f, 0.2305041f, -0.0802956f, -0.1856450f, -0.1361960f, 0.0416907f, -0.1400794f, -0.0496663f, -0.1711257f, 0.1607267f, 0.1399177f, -0.1647964f, -0.0388401f, 0.0165381f, -0.0604074f, -0.0440878f, -0.0252735f, 0.2182589f, -0.1184820f, -0.1282387f, 0.0161203f, -0.0103148f, 0.1211638f, -0.0610173f, -0.1491557f, -0.0361205f, -0.0748407f, 0.0994035f, 0.0620883f, 0.0011361f, 0.0475506f, 0.2111928f, 0.1202126f, -0.1510198f, 0.0642056f, 0.1561523f, -0.1133075f, 0.0601560f, -0.1947887f, 0.0714665f, -0.0642443f, -0.0784022f, 0.1533290f, 0.1767000f, 0.0818594f, -0.1085800f, -0.0070796f, 0.1008948f, -0.0481988f, -0.0668834f, -0.0855299f, -0.0740882f, 0.1802772f, 0.1852130f, 0.1060703f, 0.0454010f, 0.0048778f, -0.0839659f, 0.0415914f, -0.1493040f, -0.0783063f, 0.1299975f, -0.1313924f, 0.0011810f, -0.1287460f, -0.0731495f, -0.0759771f, 0.0894164f, -0.1182418f, 0.0990371f, 0.0874917f, -0.0565464f, -0.2043799f, -0.0168359f, -0.0856160f, 0.1331872f, -0.1308532f, 0.0707674f, -0.0069323f, -0.0117742f, -0.1338882f, 0.2055784f, -0.1163793f, -0.0433617f, -0.1363740f, -0.1063437f, 0.1097439f, -0.0148334f, 0.1378240f, -0.0111277f, -0.0847526f, -0.1661973f, -0.1345382f, -0.1212371f, -0.0422070f, 0.0091426f, -0.1034811f, 0.0579107f, -0.0730174f, 0.0692098f, -0.0094420f, 0.1093313f, 0.0323942f, -0.1758854f, -0.2068077f, -0.1640996f, -0.0392441f, 0.0047264f, -0.0498655f, -0.1338522f, 0.0623102f, -0.0441154f, -0.0271718f, -0.0365905f, -0.0408951f, 0.0600475f, 0.1773654f, -0.1477982f, -0.1471086f, -0.0459856f, 0.1413801f, -0.0823487f, 0.0968196f, -0.1807862f, 0.0049349f, -0.1343401f, -0.0666356f, 0.1666185f, 0.0556444f, 0.0691954f, 0.0455410f, -0.0204116f, -0.0554858f, 0.1148719f, 0.0661771f, 0.0068362f, 0.1448963f, 0.0150402f, 0.1125287f, 0.1793033f, 0.1555154f, -0.0366252f, -0.1918242f, -0.0275792f, 0.1058771f, 0.0495598f, 0.0829504f, 0.1138141f, 0.0564034f, -0.0387643f, -0.0301523f, -0.0133480f, -0.1894200f, -0.0332041f, 0.1570421f, -0.1804580f, 0.1239593f, 0.1039147f, 0.2277715f, 0.1310225f, 0.0257802f, -0.3053730f, 0.1558456f, -0.0103596f, 0.0231116f, -0.0697311f, 0.0140761f, 0.0919838f, 0.2124802f, -0.0033132f, -0.0486439f, 0.0724753f, 0.1413019f, -0.0869312f, -0.1646109f, -0.1340803f, -0.0485185f, 0.0831916f, -0.1816755f, 0.0256926f, -0.1608531f, -0.0833752f, 0.1244296f, 0.1561210f, -0.0867463f, -0.1466593f, -0.1804547f, 0.0104293f, 0.1506639f, -0.1274879f, -0.0225682f, -0.0060071f, -0.1479572f, -0.1621180f, -0.0890413f, -0.0832322f, -0.0130257f, 0.1368733f, -0.0677285f, -0.0884483f, 0.2159447f, 0.0813051f, 0.0984765f, 0.1256774f, -0.1399184f, -0.0458890f, 0.0608016f, 0.1151573f, -0.1037215f, -0.0798552f, -0.0213652f, 0.0760196f, -0.1682844f, 0.1271842f, -0.1333999f, -0.1340426f, 0.0554610f, -0.0142234f, -0.0294248f, -0.0950328f, 0.0645673f, -0.1240511f, -0.0750691f, -0.0225286f, 0.0694882f, 0.1997744f, -0.0479677f, 0.0961991f, -0.1139435f, -0.0937221f, 0.0410457f, -0.1436511f, 0.0404271f, -0.1010978f, -0.1730892f, -0.0888972f, -0.1356796f, -0.0824252f, 0.1082831f, -0.0093610f, -0.0576738f, -0.0651410f, 0.0128743f, 0.0771893f, 0.1497054f, 0.0472285f, -0.0218195f, -0.0417274f, -0.0190729f, 0.2259335f, 0.0086548f, -0.0903177f, 0.0974216f, 0.1148801f, -0.3050576f, -0.0097248f, -0.1341973f, 0.1509840f, 0.0649723f, -0.1221402f, -0.0594929f, 0.0134684f, -0.0097500f, -0.2052307f, -0.0037882f, -0.0665999f, 0.1434221f, -0.1303167f, -0.1733933f, 0.0082190f, -0.0259100f, 0.0638388f, 0.1594836f, 0.2544144f, 0.1997186f, 0.1464038f, 0.0312176f, -0.1399488f, 0.1175756f, -0.1343098f, 0.1222265f, 0.0364204f, -0.0841564f, 0.1599986f, 0.1192103f, -0.1095584f, -0.0049086f, 0.1625554f, -0.0283494f, 0.1315667f, -0.1279782f, 0.2002914f, 0.1035181f, -0.0358042f, 0.1128268f, -0.1700621f, -0.0505997f, -0.1243631f, 0.1794220f, -0.0883318f, -0.0354372f, 0.1495963f, -0.1363555f, -0.0450552f, -0.1336969f, -0.0383056f, -0.0486969f, 0.0565880f, 0.1936893f, -0.0105432f, -0.0571676f, -0.1603637f, 0.0608147f, -0.2069564f, -0.0942077f, 0.0587725f, 0.1660675f, 0.1385135f, 0.1210291f, -0.0033482f, 0.0905391f, -0.0793908f, -0.1435644f, -0.0715304f, 0.0531863f, -0.1012462f, -0.0113867f, 0.1212755f, 0.1255673f, 0.0546801f, 0.0788476f, -0.0673594f, 0.0245536f, -0.1361364f, -0.0161639f, 0.0960824f, 0.0171672f, -0.1544127f, -0.0088003f, 0.1702551f, 0.0822243f, 0.1373634f, 0.1706474f, 0.1473289f, 0.0573152f, 0.2036511f, 0.1259239f, 0.1630859f, 0.1129268f, 0.0184073f, -0.0606031f, -0.2032521f, -0.0987122f, 0.2168887f, -0.1232916f, -0.0914329f, 0.0891650f, 0.0992919f, -0.0705006f, -0.0221793f, -0.2499198f, -0.0805238f, 0.0116933f, 0.1021515f, -0.0468174f, -0.0768419f, 0.0753874f, 0.0617420f, 0.1471960f, -0.1051588f, -0.0387050f, -0.0480372f, -0.1256814f, -0.1998132f, 0.1757778f, 0.1484814f, -0.1764037f, -0.2125560f, -0.0336254f, 0.0898614f, 0.0812288f, -0.0878363f, 0.1355869f, -0.0355691f, 0.0046548f, 0.0116490f, 0.0578117f, -0.0098252f, 0.0807841f, 0.1883427f, -0.0969543f, -0.0394132f, -0.0724948f, 0.0771995f, 0.1418039f, 0.0766943f, -0.1094912f, -0.1115173f, 0.0345108f, -0.1487322f, -0.1489147f, -0.2497038f, -0.0942775f, 0.0878306f, 0.1250426f, 0.0002955f, -0.1080964f, -0.1484722f, 0.0621638f, 0.1272082f, 0.0458914f, -0.1618314f, -0.1546853f, 0.0377201f, 0.0506224f, -0.0980884f, 0.1385411f, 0.1134194f, -0.0025266f, 0.0227752f, -0.1594109f, 0.0689990f, 0.0248648f, -0.1500669f, -0.1922930f, -0.0391435f, -0.0101111f, -0.0287434f, -0.1520560f, 0.0173471f, -0.1080295f, 0.0492746f, -0.1943100f, 0.0665737f, 0.1766621f, -0.1513324f, 0.0939044f, 0.1765156f, -0.0813823f, 0.1271542f, 0.1774618f, 0.0367256f, -0.0098988f, 0.0733398f, 0.1338435f, -0.0097220f, -0.0953503f, 0.0512634f, -0.1473573f, 0.1795027f, -0.0778402f, -0.1205331f, -0.0753647f, 0.0917753f, 0.1234654f, 0.0219312f, -0.0941513f, -0.2038934f, -0.1487499f, -0.0867795f, 0.0282747f, -0.1309530f, 0.0943008f, 0.0992066f, 0.0798051f, 0.0478258f, 0.1502384f, 0.1095840f, 0.0606144f, -0.1364776f, 0.1634367f, 0.1104547f, 0.1180058f, -0.2199133f, -0.1213191f, -0.0740119f, -0.1071684f, -0.1818835f, 0.3114739f, -0.1044597f, -0.0555634f, -0.1485018f, -0.0314795f, 0.1788000f, 0.0843377f, 0.1585052f, -0.0402791f, 0.0568227f, 0.2602701f, 0.1605231f, -0.1632643f, 0.0882348f, -0.0534062f, -0.0939853f, -0.1254138f, 0.0321284f, -0.1677369f, 0.0385485f, -0.1780153f, -0.0920871f, -0.1256977f, -0.1191509f, -0.0702967f, 0.0824875f, 0.1216754f, 0.0692295f, -0.1197564f, -0.0927194f, 0.0851320f, -0.0125009f, -0.1865118f, -0.2269722f, 0.1101255f, -0.0552970f, 0.0889904f, -0.1369160f, -0.0792557f, -0.2001674f, 0.1132272f, -0.0759541f, -0.1952100f, -0.1731852f, 0.0945531f, -0.1300833f, -0.1023721f, -0.0482574f, -0.1860272f, -0.1862984f, 0.1745776f, 0.0993190f, -0.1456917f, -0.0106742f, -0.1664812f, 0.0375596f, -0.1051964f, 0.0427376f, 0.1712441f, -0.1380247f, -0.0994429f, -0.1386745f, -0.0658549f, -0.1959617f, 0.1427927f, 0.0733039f, -0.1169354f, -0.1527325f, 0.1265055f, 0.0783819f, -0.0804370f, 0.0434400f, -0.1179715f, -0.1065670f, 0.0988507f, 0.0818934f, 0.1812228f, 0.1405565f, -0.1578644f, -0.1442998f, -0.0983341f, -0.0627395f, 0.0892681f, -0.1063793f, -0.1570871f, 0.0935334f, 0.0200253f, 0.0845668f, -0.1141645f, -0.0434287f, 0.1237467f, -0.0420745f, 0.0156014f, -0.0632030f, -0.0416682f, -0.1074306f, -0.0531734f, -0.1373425f, -0.1921736f, 0.2681751f, -0.1110825f, -0.1111071f, 0.0950099f, -0.1540918f, 0.0194713f, 0.1384738f, -0.0256292f, -0.1481756f, -0.0500952f, -0.1105217f, -0.0894211f, 0.1460819f, 0.0854953f, -0.0106227f, 0.0376917f, 0.0505477f, 0.0723376f, -0.1004756f, 0.0262534f, -0.2765993f, 0.0243291f, -0.1741845f, -0.1656941f, -0.0731257f, -0.0980037f, 0.0121848f, -0.1975384f, -0.0575408f, 0.3837584f, 0.0196375f, 0.0201754f, -0.0615020f, -0.1571391f, -0.0608063f, 0.1450401f, 0.0800266f, 0.0836696f, 0.1827958f, 0.2719339f, -0.1114006f, 0.0640729f, -0.0091201f, 0.0501009f, -0.0901732f, 0.0151062f, 0.0492050f, -0.0318963f, -0.1853193f, -0.0400437f, -0.1329006f, 0.0428468f, 0.1179417f, 0.1165961f, -0.0645655f, -0.1608663f, -0.2302352f, 0.1388245f, -0.1711814f, 0.0809161f, 0.0450400f, -0.0266181f, 0.1218628f, -0.0490606f, -0.2098187f, 0.0853110f, 0.0370474f, -0.0030677f, -0.0800399f, 0.1198808f, -0.1156793f, 0.2334522f, 0.1619121f, 0.0661981f, 0.0137330f, -0.1422683f, -0.0355377f, 0.0776823f, -0.1423034f, 0.0132242f, 0.0895110f, -0.0459463f, -0.1266961f, -0.1476103f, -0.1213061f, -0.1000579f, 0.0226216f, -0.1283733f, 0.1935105f, -0.0191512f, -0.1066524f, 0.1615768f, 0.0335500f, -0.0458965f, -0.1035655f, 0.0055826f, 0.1774540f, 0.0911407f, -0.1848456f, -0.0369012f, -0.0894403f, 0.0099849f, -0.1357519f, -0.1539202f, 0.1461989f, 0.1107714f, -0.0310185f, 0.0846467f, -0.1330803f, -0.0793435f, -0.1029138f, -0.1255435f, 0.2195018f, 0.0115056f, -0.1176803f, 0.1495642f, 0.0364514f, -0.0627245f, -0.0015480f, 0.1767776f, 0.2513398f, -0.0490778f, -0.0336135f, -0.1220477f, 0.2158362f, -0.1419064f, -0.0400189f, -0.1536207f, 0.2385074f, -0.1677657f, -0.0638041f, -0.1028220f, -0.1692161f, -0.0667770f, 0.0176022f, 0.0135046f, -0.1425252f, -0.0341363f, -0.0743984f, 0.0653674f, 0.0249227f, -0.0537682f, 0.0570376f, -0.0655430f, 0.0674318f, 0.0528446f, 0.1069134f, -0.0515706f, 0.1256079f, 0.0465125f, 0.0175426f, -0.1288877f, 0.1342981f, -0.0935876f, -0.0018189f, 0.0011298f, -0.1334701f, -0.0581251f, -0.1082630f, 0.0605286f, -0.0676474f, 0.0215751f, -0.0506521f, 0.0774843f, -0.0592833f, -0.0071293f, 0.1558391f, 0.0859767f, -0.0875347f, 0.0572839f, -0.0232011f, -0.1428008f, 0.0774625f, -0.1374674f, 0.0502800f, -0.0546282f, 0.1800543f, -0.0047545f, 0.0778704f, -0.0031802f, 0.1160289f, -0.1390630f, 0.0468027f, -0.0251310f, -0.1412552f, 0.1090178f, -0.0843666f, 0.0181741f, -0.1368017f, 0.0764116f, 0.1692620f, 0.0617486f, -0.0440258f, -0.0828632f, -0.1642527f, -0.0934609f, 0.0452064f, 0.1489945f, -0.0687888f, 0.0735620f, -0.0815329f, -0.0798573f, 0.1675715f, 0.0380236f, -0.0902940f, 0.1099841f, -0.1670646f, 0.0302329f, -0.0125479f, -0.0490652f, -0.1601931f, -0.1460264f, 0.0454470f, 0.0577229f, 0.1119226f, 0.1227057f, -0.0257160f, 0.1925734f, 0.0827407f, -0.1040404f, -0.1298530f, 0.2152627f, -0.1660466f, -0.1109163f, -0.1426119f, 0.1190462f, 0.1506711f, 0.0260105f, 0.1118281f, 0.1334268f, -0.0393495f, 0.0074622f, 0.1718161f, -0.0005719f, 0.0405353f, 0.0833240f, -0.0689456f, 0.0025272f, -0.1314027f, -0.1191607f, -0.0509319f, -0.1098437f, -0.1713433f, 0.1690986f, 0.1762006f, -0.0173158f, 0.0376999f, 0.1509347f, 0.2353063f, 0.0647992f, 0.1128173f, -0.0252121f, 0.1579740f, -0.2817593f, -0.1353927f, -0.1882290f, -0.0184504f, -0.1565738f, 0.1237662f, -0.1822405f, -0.0758279f, 0.1921380f, 0.0906144f, -0.0051283f, 0.0383017f, -0.0142132f, -0.0772473f, -0.0738567f, 0.1232211f, 0.0174852f, 0.0343811f, -0.0035170f, 0.1530059f, 0.1887076f, 0.0206817f, -0.1536068f
};

const float net_4_bias[32] = {
    0.1351773f, 0.1281779f, 0.2204904f, 0.0649925f, -0.2088497f, 0.1347561f, -0.0116826f, 0.1474949f, 0.2132926f, 0.0418533f, -0.2720214f, -0.0084763f, 0.1764352f, 0.1614990f, 0.0937336f, -0.1570745f, 0.1875805f, -0.2310140f, 0.0426795f, 0.2242883f, -0.1725157f, -0.0408373f, 0.0416360f, 0.1703041f, 0.0513583f, -0.2276706f, 0.2918510f, -0.0051091f, -0.0684107f, -0.1261982f, 0.0058460f, -0.0509720f
};
#define SIZE_NET_4_BIAS 32

const float net_6_weight[32] = {
    0.0601142f, 0.1367848f, 0.2393306f, 0.0698744f, -0.1520030f, 0.1517435f, -0.1673951f, 0.1471912f, 0.1259926f, -0.2451838f, -0.1683570f, -0.1223293f, 0.1649696f, 0.2361022f, -0.1759420f, -0.1199825f, 0.1267085f, -0.0760150f, 0.0703258f, 0.2265067f, -0.1055117f, 0.2546988f, -0.1569505f, 0.0770790f, -0.0667995f, -0.1988712f, 0.1162112f, 0.2272954f, 0.0564152f, -0.1577130f, -0.1676557f, 0.0806495f
};

const float net_6_bias[1] = {
    0.2427683f
};
#define SIZE_NET_6_BIAS 1

#endif // _MODEL_WEIGHTS_H
