#ifndef _MODEL_WEIGHTS_H
#define _MODEL_WEIGHTS_H

// Auto-generated weights from PyTorch model

#define MAX_ALTITUDE 2800.0f
#define MAX_VELOCITY 260.0f

const float net_0_weight[64] = {
    0.6050476f, -0.1276819f, -0.6318485f, -0.3619874f, -0.2998576f, 0.0596526f, -0.2012526f, -0.1666841f, -0.5072341f, -0.0551832f, 0.3170198f, -0.3982739f, -0.5207967f, -0.0249976f, -0.2380073f, -0.5589440f, 0.1999401f, -0.4383745f, 0.6429105f, -0.6559471f, -0.2949871f, 0.7305279f, 0.0523476f, 0.8917130f, -0.0782950f, 2.0443325f, 0.0746751f, -0.3674740f, -0.1017013f, 0.6126540f, -0.4609008f, 0.0043505f, -0.5719117f, 0.2712672f, -0.0125769f, -0.1225444f, -0.1350030f, -0.4991336f, -0.3638951f, 0.0000370f, -0.4616908f, -0.2452575f, -0.5404666f, -0.1215531f, 0.1781694f, -0.2346156f, -0.2367609f, 0.2092821f, -0.3962680f, 0.0685471f, 0.4535531f, -0.1530699f, -0.3138193f, -0.3729196f, 0.4557084f, 0.1728285f, -0.1986398f, 1.0013856f, 0.2505874f, -0.4593925f, 0.2796447f, 0.3834157f, 0.5306363f, 0.3141033f
};

const float net_0_bias[32] = {
    0.6224019f, 0.5557342f, -0.6651569f, -0.1584228f, 0.3901506f, 0.6579977f, 0.6005903f, 0.1133596f, 0.1698396f, 0.2624619f, 0.2161359f, -0.2497288f, 0.6512124f, 0.4300130f, 0.2632117f, 0.0739033f, -0.1528338f, -0.1089641f, 0.0909279f, 0.0627915f, -0.6096373f, 0.1984654f, 0.7032114f, 0.4822918f, 0.3685874f, -0.2579222f, 0.6109502f, 0.0119510f, 0.6327500f, 0.0023952f, 0.2871195f, 0.3695849f
};
#define SIZE_NET_0_BIAS 32

const float net_2_weight[1024] = {
    0.0668464f, -0.0036808f, -0.1452949f, -0.0849082f, -0.0445854f, -0.1833021f, -0.1149321f, 0.1428971f, 0.1136062f, 0.1780627f, -0.2464803f, -0.0572390f, 0.2099303f, -0.1354147f, 0.0875784f, 0.1529317f, 0.1038562f, -0.0462004f, 0.1216511f, 0.1065741f, -0.0484075f, 0.1395815f, 0.1483094f, -0.0446624f, 0.0604219f, -0.1367960f, -0.0466379f, -0.1202400f, 0.1163913f, 0.0662112f, -0.1296161f, -0.1107562f, 0.0677388f, 0.0861461f, 0.1425792f, 0.1161350f, -0.1987420f, 0.1141690f, -0.1507728f, -0.0021756f, 0.0477296f, 0.1102097f, -0.1604942f, -0.0428934f, -0.0633686f, -0.0295778f, -0.0466560f, -0.1391239f, -0.1688264f, 0.0878898f, 0.0546858f, 0.1126521f, -0.0993973f, 0.0013813f, -0.0180277f, 0.1749805f, 0.0632588f, 0.0996202f, -0.0328897f, -0.0581884f, -0.0958942f, 0.0590591f, -0.0983956f, -0.0072708f, 0.1640688f, -0.0226349f, -0.0912329f, -0.0446837f, -0.0152179f, 0.1282017f, -0.0001641f, -0.0857160f, 0.1789166f, 0.0061686f, -0.0055506f, 0.1279759f, 0.0728379f, 0.0851327f, -0.0553764f, 0.1236158f, -0.1750444f, -0.0776213f, -0.1533766f, -0.1735974f, 0.1536413f, 0.1061187f, -0.1321675f, 0.0052776f, 0.0675979f, 0.0730100f, 0.1430057f, -0.0831957f, -0.0807569f, 0.0944209f, 0.1741465f, -0.0030645f, 0.1350061f, 0.0319851f, 0.0130369f, 0.0280599f, 0.0863414f, 0.1888339f, 0.0493923f, -0.1164283f, -0.0926259f, -0.0897605f, -0.0334556f, 0.1640920f, -0.0368003f, 0.1173580f, 0.0336045f, 0.0694152f, -0.0740282f, 0.1164469f, 0.1449260f, -0.1592282f, 0.1558287f, -0.0977515f, -0.0715816f, 0.0607808f, -0.0185062f, -0.0067047f, 0.1596005f, -0.0124616f, -0.0258642f, 0.0807793f, 0.1738241f, 0.1087896f, -0.1368699f, 0.0554392f, -0.0530706f, -0.0590668f, -0.0957611f, 0.0863801f, 0.0233637f, -0.2793273f, -0.1097344f, -0.0824672f, -0.0054921f, 0.2269957f, -0.2033056f, 0.0605420f, 0.1730928f, -0.1281681f, 0.0316354f, 0.0632306f, -0.0284841f, -0.0063747f, 0.1759706f, 0.0603850f, -0.0904578f, -0.1214199f, -0.3332858f, 0.0036229f, 0.1525324f, -0.1864382f, 0.0871845f, 0.0684468f, 0.1392073f, 0.0347263f, 0.1729552f, 0.0877725f, -0.0701684f, -0.0694672f, -0.0079620f, -0.1111664f, 0.0072263f, -0.1893263f, -0.0285461f, 0.0520706f, -0.1245519f, 0.0859359f, -0.0539699f, -0.0163671f, 0.0092047f, -0.0337582f, 0.0255765f, -0.1648731f, -0.1717841f, 0.1036689f, -0.0664670f, -0.1353128f, 0.0032925f, 0.1038123f, -0.0040302f, 0.0371682f, 0.1471834f, -0.0269235f, -0.0626203f, -0.1305258f, -0.0321856f, 0.1518864f, 0.1640654f, 0.1201231f, 0.0053298f, 0.0128856f, -0.1005085f, 0.0748094f, -0.1104051f, 0.0923365f, -0.1676211f, -0.0408448f, 0.0791837f, 0.2104806f, -0.0478194f, 0.1705302f, 0.1543798f, -0.0589834f, 0.0948310f, -0.1516916f, 0.0561303f, -0.1264260f, -0.1233554f, 0.1342164f, -0.0044182f, 0.0827650f, -0.2046518f, 0.0850479f, -0.1600503f, -0.0445748f, 0.1041954f, 0.1160147f, 0.0478367f, -0.1586979f, -0.0506152f, 0.1535700f, 0.1606843f, 0.1378808f, -0.0765786f, 0.1060218f, -0.1255159f, 0.0319278f, 0.0878898f, 0.0159836f, -0.0465090f, -0.1565162f, 0.3083926f, -0.0100116f, -0.2349254f, -0.0419971f, 0.1338966f, -0.0668615f, -0.0289444f, 0.2167347f, 0.0135643f, 0.1188398f, -0.0105127f, -0.1630557f, 0.0253324f, -0.0040918f, 0.1246016f, -0.0774323f, -0.1744690f, 0.0139283f, 0.1216613f, -0.1832121f, -0.0139113f, -0.0214850f, -0.1616503f, -0.1067234f, 0.0772264f, 0.1621936f, 0.1442637f, -0.0320809f, 0.0071595f, -0.0175405f, 0.0733411f, 0.0902079f, -0.1846290f, -0.1269034f, -0.1243824f, 0.1220864f, 0.1409293f, -0.0853480f, 0.0617749f, -0.1306777f, -0.1877211f, 0.0930291f, 0.1702655f, -0.0981367f, -0.2133524f, -0.1174843f, -0.1226770f, 0.0565562f, -0.1151473f, 0.0015922f, 0.0639443f, 0.0704769f, 0.1369390f, 0.0236956f, 0.1328904f, 0.0808121f, 0.0380878f, 0.1774082f, 0.1625385f, 0.1734276f, 0.1764467f, -0.1314276f, -0.0146938f, -0.1369375f, 0.0216358f, -0.0336214f, -0.0576666f, 0.0759549f, 0.1277391f, 0.1371821f, -0.0824393f, -0.1036048f, 0.0683989f, 0.0435687f, 0.0911926f, 0.0857984f, 0.1236844f, -0.0211877f, 0.1318387f, 0.0128558f, 0.0185687f, -0.1377967f, -0.1525806f, -0.0730169f, 0.0416913f, -0.0100330f, -0.1578784f, 0.0037466f, -0.1695792f, -0.1174683f, 0.0788713f, -0.2207136f, -0.0662064f, -0.1477117f, 0.1727320f, 0.3405346f, -0.2309123f, 0.0866013f, 0.0976045f, 0.0645812f, 0.0591835f, -0.0034026f, -0.1967974f, -0.0585570f, 0.1023217f, 0.0659668f, 0.1085019f, -0.0458056f, 0.0652400f, 0.0501336f, -0.1399250f, 0.1382199f, -0.0393621f, -0.1665459f, -0.0061995f, -0.1191669f, -0.1492952f, -0.0600265f, -0.1277759f, -0.0851991f, 0.0614815f, -0.0022522f, 0.0526239f, -0.0527019f, 0.1804998f, 0.1430855f, 0.1613307f, 0.0932815f, -0.1213283f, -0.1530248f, -0.0247394f, -0.1076947f, 0.0774411f, 0.0715462f, -0.1325974f, 0.0597247f, 0.0017357f, -0.0207529f, -0.0040143f, -0.1306320f, 0.1182849f, 0.1203882f, 0.1312875f, 0.1364564f, -0.0260015f, -0.1049926f, 0.0947395f, 0.1577987f, 0.1086663f, 0.1216015f, 0.1630435f, 0.0263396f, -0.0127526f, 0.1252252f, 0.0932275f, 0.0337767f, 0.0280161f, 0.1134313f, 0.0946034f, 0.1387694f, -0.1022436f, 0.1357093f, 0.1230893f, 0.1357789f, -0.0527483f, -0.0730028f, -0.1426759f, -0.0177380f, 0.1436587f, 0.0951587f, -0.1220704f, -0.0997029f, -0.1596253f, 0.1478813f, -0.1302410f, -0.0297405f, 0.0720858f, -0.0910376f, -0.0420738f, -0.0696208f, 0.0820692f, 0.4578299f, -0.0231714f, 0.0661344f, 0.4127889f, 0.0201360f, 0.1477991f, 0.4740670f, 0.1128672f, 0.1776869f, 0.0284565f, -0.4711366f, 0.3643995f, 0.1604640f, 0.0827650f, -0.1351569f, -0.0395326f, -0.1064911f, 0.1919536f, 0.0483762f, 0.0117111f, 0.2236404f, 0.0209454f, 0.1123847f, 0.9025052f, -0.2359735f, 0.0754964f, 0.0086680f, 0.1713381f, 0.1157081f, -0.0942630f, -0.0332766f, -0.1597026f, -0.0839905f, -0.1397133f, 0.1382833f, 0.1223309f, -0.1687961f, 0.0046159f, 0.0675892f, -0.0863215f, -0.1314991f, -0.1926610f, 0.0257851f, 0.0711012f, -0.0780315f, -0.1461937f, 0.0920162f, 0.1158623f, 0.0248100f, 0.0718499f, -0.0420700f, -0.1305252f, 0.1810239f, -0.0828245f, -0.1093774f, -0.0712086f, 0.0080869f, 0.1483592f, 0.0418730f, 0.0942271f, -0.0376295f, 0.0055294f, -0.1033267f, -0.0051009f, 0.0811651f, 0.1098202f, 0.0337625f, 0.1375757f, -0.0605540f, -0.0004263f, 0.0017712f, 0.0392107f, -0.0874615f, -0.0348911f, -0.0107189f, 0.0592400f, 0.1221143f, -0.0407412f, -0.1527761f, -0.0474167f, 0.0034422f, 0.1250623f, -0.1179470f, 0.0558472f, 0.0858614f, 0.1175418f, -0.0033587f, -0.0943769f, 0.1143068f, 0.0220301f, -0.0441363f, 0.0717525f, 0.0987118f, 0.1930060f, -0.0610806f, 0.0286268f, 0.1816206f, -0.1344079f, 0.0889064f, 0.1334578f, 0.0356946f, 0.0403695f, 0.0939561f, -0.0426453f, -0.1108201f, -0.0794414f, -0.1526158f, -0.0848654f, -0.0576373f, -0.1009362f, -0.1032404f, 0.1679523f, -0.0056516f, 0.0127832f, 0.1068672f, -0.0689594f, -0.0647322f, -0.1521824f, -0.0633805f, 0.0735283f, -0.0377173f, 0.0210734f, 0.0569150f, 0.1632888f, 0.1076494f, 0.0857344f, 0.1101275f, 0.1913171f, 0.0734095f, -0.0053859f, -0.1198495f, 0.0720424f, 0.1337128f, -0.1221021f, -0.1111908f, -0.0686479f, -0.0781428f, 0.1552237f, -0.0875565f, -0.2234213f, -0.0559592f, 0.1181255f, 0.1474200f, 0.0031209f, 0.0540770f, 0.0021013f, -0.1961862f, -0.1611285f, -0.0147919f, 0.1988726f, -0.0575767f, -0.0113325f, -0.0287612f, -0.0381177f, 0.0433602f, 0.1231622f, -0.0214989f, 0.0700709f, 0.1436117f, 0.0037455f, -0.1123416f, 0.0272686f, 0.1397353f, -0.1535098f, 0.0024497f, -0.1619942f, -0.1859378f, 0.1128838f, 0.0973327f, 0.2322863f, -0.0047660f, -0.1699601f, 0.1870993f, -0.0530766f, -0.1349609f, 0.1507869f, -0.1050758f, 0.1320006f, 0.1202681f, -0.1006213f, 0.0310994f, 0.0221164f, 0.1082300f, -0.0284062f, 0.0695708f, 0.0508329f, 0.1548167f, -0.0611252f, -0.1250290f, 0.0991431f, -0.0984058f, -0.0962015f, -0.0057434f, 0.1285970f, -0.1054828f, -0.0090827f, -0.1276626f, -0.0666649f, -0.2580007f, -0.1386179f, -0.1821276f, 0.1416916f, 0.1737946f, 0.0790441f, 0.1711289f, 0.1852810f, -0.1810576f, 0.0965511f, -0.1998151f, -0.2507814f, -0.0190932f, 0.1585824f, 0.0620800f, 0.0516367f, -0.1128482f, -0.0067479f, -0.0974555f, 0.0000561f, -0.0047462f, -0.1609536f, 0.1209264f, -0.0320968f, 0.0663846f, -0.0895608f, 0.0208343f, 0.1888142f, 0.1197862f, 0.0793546f, 0.0919539f, 0.0577839f, 0.0591002f, -0.0831932f, -0.1187718f, -0.1275931f, 0.1351612f, 0.0094970f, 0.1276263f, -0.1403712f, 0.1943398f, 0.1037410f, 0.1522177f, -0.0626371f, 0.0365137f, -0.0562298f, 0.1891624f, -0.0441777f, 0.0104551f, 0.1060260f, 0.1047013f, 0.0760435f, 0.1371118f, -0.1413974f, 0.1073941f, -0.0205600f, 0.1352281f, -0.1502878f, 0.1462530f, -0.1257875f, -0.1068609f, -0.0570025f, 0.0547611f, 0.0333824f, 0.1908998f, 0.1701962f, 0.1283941f, -0.1755525f, -0.2109579f, 0.2978173f, -0.0680696f, -0.1707793f, 0.0546118f, -0.1567565f, -0.0856811f, 0.0065590f, -0.0004311f, 0.1159258f, -0.1224356f, 0.0055656f, 0.1327285f, 0.0301510f, 0.1665088f, 0.0489440f, -0.0379503f, -0.0157854f, 0.0544065f, 0.1055001f, 0.0939769f, -0.0089223f, -0.1287439f, -0.0743468f, -0.1038160f, -0.1694958f, -0.0768060f, 0.0874434f, 0.1346648f, 0.1051478f, -0.0493583f, 0.1862183f, -0.0718296f, -0.1293039f, -0.0355995f, -0.0284335f, 0.0672286f, 0.0800116f, -0.0765165f, -0.1284529f, -0.1777839f, -0.0975830f, 0.0972150f, -0.0375528f, -0.1462701f, -0.1054028f, 0.1994537f, 0.1398728f, -0.0621199f, -0.0759657f, 0.1867236f, 0.1660766f, 0.0548487f, 0.0998544f, -0.1024789f, -0.0220916f, 0.1274784f, 0.0494918f, -0.1056042f, 0.1178483f, 0.0787569f, 0.1044530f, -0.0191724f, 0.1228461f, 0.0966927f, -0.1219951f, -0.1668855f, -0.0337619f, 0.1118129f, 0.1103176f, -0.0728746f, 0.1307961f, -0.0601959f, -0.1369305f, 0.0485372f, -0.0805146f, 0.0465104f, 0.1571477f, -0.1120980f, -0.0593371f, -0.0912799f, 0.0534682f, 0.0458391f, -0.0520322f, -0.1806624f, -0.1108280f, -0.0193761f, 0.1989732f, 0.0232990f, 0.1535825f, 0.0337704f, 0.1004107f, 0.1351471f, -0.1073366f, 0.0787690f, -0.1144079f, -0.0437142f, 0.0501900f, -0.0692292f, 0.0559593f, 0.1188148f, 0.0213054f, -0.0894842f, -0.0546770f, -0.0117724f, -0.0384774f, -0.0157262f, -0.1612176f, -0.1554634f, 0.0248914f, -0.0084326f, 0.0358083f, 0.1234136f, -0.0128282f, -0.0135541f, -0.1535532f, -0.1686348f, -0.1636429f, 0.1883591f, 0.0964048f, 0.0121279f, -0.0766613f, 0.0386329f, 0.2535130f, -0.0586086f, -0.0089134f, -0.0645739f, -0.0085528f, -0.1392662f, 0.5439608f, -0.1632536f, -0.1714004f, -0.0905232f, 0.0929722f, -0.0602634f, 0.0111560f, 0.0549497f, -0.0179887f, -0.1751531f, -0.1642771f, -0.0650119f, 0.0691775f, -0.1796514f, -0.0923738f, -0.0195624f, -0.0997906f, -0.0890228f, -0.0444322f, 0.0573770f, -0.1510240f, 0.0981220f, -0.0845152f, 0.1690252f, -0.0453319f, -0.1342992f, -0.1280410f, -0.0520872f, 0.0188159f, 0.0618863f, -0.2222268f, 0.0999719f, 0.2636105f, -0.1461060f, -0.2191136f, 0.2006597f, 0.0313131f, 0.0369311f, 0.0470036f, 0.2026804f, -0.0835528f, 0.1078693f, -0.0435839f, -0.1282129f, 0.1448502f, -0.1262712f, -0.0013395f, 0.0210302f, 0.1045298f, -0.2037378f, 0.0592697f, -0.0590640f, -0.1735542f, 0.0688453f, 0.0788145f, 0.0232778f, -0.0746903f, -0.0076802f, 0.0246509f, 0.0412702f, -0.1514524f, 0.0244204f, 0.1461513f, -0.1136240f, -0.0111067f, 0.0350379f, -0.0284607f, -0.0679446f, -0.1122114f, 0.0323861f, -0.0248078f, 0.0055609f, -0.1646156f, 0.1197034f, -0.1291594f, -0.1262059f, 0.1707912f, -0.0348004f, 0.0097008f, 0.0928745f, -0.1028427f, 0.0231820f, -0.0647267f, -0.0838519f, 0.0961172f, -0.1648513f, 0.0792557f, 0.0036976f, -0.0786640f, -0.0323369f, -0.1321777f, -0.0360909f, -0.0624459f, -0.1175431f, 0.0815462f, 0.1606399f, -0.0374461f, -0.0571693f, -0.0860957f, 0.1099935f, -0.1596756f, -0.0131991f, 0.1044643f, -0.1452686f, -0.0897568f, -0.0654760f, 0.0150860f, 0.1694973f, -0.1082560f, 0.2193728f, 0.1545326f, 0.1188018f, 0.1495500f, 0.1873293f, -0.1492978f, -0.0026549f, 0.1100187f, 0.1070771f, -0.0270764f, 0.0246191f, -0.0908159f, -0.1498385f, -0.0111865f, -0.0314336f, -0.1466819f, 0.1531208f, -0.1201167f, -0.1112362f, 0.0971063f, -0.1127746f, -0.0957792f, 0.0352252f, -0.1130141f, 0.1547403f, 0.0082722f, -0.1121069f, 0.1656649f, 0.0889121f, 0.1493947f, 0.1657157f, 0.1848399f, 0.1122761f, -0.0619507f, -0.0026556f, 0.0057261f, -0.0656077f, -0.1758781f, -0.1435582f, 0.0799259f, -0.1442726f, -0.1862180f, -0.1851192f, -0.0454530f, 0.1277161f, -0.1080508f, 0.0168227f, 0.0656755f, -0.1172631f, -0.0621963f, -0.0614062f, -0.0207281f, 0.1279134f, -0.0750938f, 0.0582332f, -0.1617551f, -0.0361817f, 0.0084130f, -0.1115717f, 0.0362236f, -0.0028452f, -0.0363708f, -0.1304608f, 0.0620177f, 0.1442009f, 0.1540785f, -0.1348879f, -0.0954612f, -0.1473293f, 0.1765723f, 0.1353748f, -0.0614710f, -0.0705949f, -0.0903071f, -0.0016362f, 0.0471367f, 0.1470166f, 0.0168502f, 0.1477952f, -0.0098802f, 0.1702423f, 0.0129061f, -0.1919947f, 0.0387678f, -0.1022724f, 0.0819611f, -0.0211682f, 0.0624452f, -0.1542937f, 0.0062006f, 0.1037636f, 0.0272310f, -0.0534257f, -0.1310511f, -0.0315652f, 0.1165850f, 0.0069934f, 0.0815373f, 0.0628971f, 0.0048219f, 0.1191888f, -0.1220024f, -0.0276304f
};

const float net_2_bias[32] = {
    -0.1423508f, -0.0038400f, 0.1622423f, 0.1237310f, 0.1781738f, 0.1047835f, -0.1806499f, 0.0500434f, 0.1050113f, -0.0186879f, 0.0636982f, 0.0982460f, -0.1501517f, 0.0772984f, 0.0572967f, 0.0986505f, -0.0076958f, 0.0770239f, 0.0993055f, -0.1445637f, -0.1254655f, -0.0724965f, -0.1383620f, 0.0930104f, 0.0197492f, 0.0270214f, -0.0190192f, -0.1562912f, -0.1465832f, -0.1733488f, -0.0339511f, -0.1321713f
};
#define SIZE_NET_2_BIAS 32

const float net_4_weight[1024] = {
    -0.1467177f, 0.0367339f, 0.0764850f, 0.1099428f, -0.0213972f, 0.0019058f, -0.1322607f, 0.0774338f, 0.0856051f, -0.0062687f, 0.1114559f, 0.1029986f, 0.0774763f, -0.0399520f, -0.0895414f, 0.1750114f, -0.0648908f, -0.0332382f, 0.1908637f, 0.0446206f, -0.1669880f, -0.0379146f, 0.1686726f, -0.1567018f, -0.0579571f, 0.0028926f, -0.1756128f, -0.0642449f, 0.0713761f, -0.0789810f, 0.0449100f, -0.1841040f, -0.1172242f, -0.0040244f, 0.0280384f, -0.0627098f, -0.1125940f, 0.0596436f, 0.0695355f, 0.1327054f, -0.2084198f, 0.0153620f, -0.0549322f, -0.1615224f, 0.0551605f, -0.0196191f, 0.1093209f, 0.0501908f, -0.0414582f, 0.1073645f, -0.0257509f, 0.0058538f, -0.0826870f, -0.0316102f, 0.0007514f, 0.0235029f, 0.0400482f, 0.2456043f, 0.0484831f, 0.0776626f, -0.0622959f, -0.1450015f, -0.0796191f, 0.1076145f, -0.0362280f, -0.0751390f, 0.1337480f, -0.1747642f, 0.1375017f, 0.0225120f, -0.0313124f, 0.1535658f, 0.0188865f, 0.1351041f, -0.1500784f, -0.0917411f, -0.0168650f, -0.1018716f, -0.0235771f, 0.1244238f, -0.0198422f, -0.1652198f, -0.2448584f, 0.1490836f, -0.0390230f, -0.1120274f, 0.0597049f, 0.0102573f, 0.1159542f, 0.1216704f, 0.0601574f, -0.0816596f, -0.0436587f, -0.0274456f, 0.0949832f, -0.1307727f, -0.1300419f, -0.0791698f, 0.0049908f, -0.1476051f, -0.1498967f, 0.0126676f, -0.1752317f, 0.0630499f, -0.0656219f, 0.1454468f, -0.1587803f, -0.1198112f, -0.0385360f, -0.0127219f, 0.1705982f, -0.0023006f, 0.0133257f, -0.0837943f, -0.2393949f, -0.1568342f, -0.1316141f, 0.1275106f, -0.1513370f, 0.0200529f, 0.1274858f, -0.0946202f, -0.0950844f, -0.1271715f, 0.0212795f, 0.0954618f, -0.1973349f, -0.0839249f, 0.0730189f, 0.0049794f, 0.1038361f, 0.1025095f, 0.0688404f, 0.1041783f, -0.1198987f, 0.0801408f, 0.1453776f, -0.1433313f, -0.0148219f, -0.0538000f, -0.0072472f, 0.0262018f, -0.0633892f, 0.0773234f, 0.0189821f, 0.0185497f, -0.0800332f, -0.0314294f, 0.1480058f, -0.0759015f, 0.0289850f, -0.0938587f, 0.1169960f, 0.0075129f, -0.1674631f, 0.0313848f, 0.1233178f, -0.1157445f, 0.1576257f, -0.1149160f, -0.0225993f, 0.1332281f, 0.1313079f, 0.1344500f, -0.1096201f, -0.1143623f, -0.0101125f, -0.0645199f, 0.1848399f, -0.1123826f, -0.0541870f, 0.0699744f, -0.1406145f, 0.0514330f, -0.1335876f, 0.0614617f, 0.0338693f, 0.1416213f, 0.0910714f, 0.1487972f, 0.1455791f, -0.1701063f, -0.0151170f, -0.1513203f, -0.1334944f, -0.0996957f, -0.0539035f, -0.0306431f, 0.0152712f, -0.0950269f, 0.0542965f, 0.0037811f, -0.0476567f, 0.0763655f, 0.1397906f, -0.1312190f, -0.1287519f, 0.0662545f, 0.0721686f, 0.0531077f, 0.1403079f, 0.0081355f, -0.0422594f, 0.1836972f, 0.0158896f, -0.0258726f, -0.0826198f, -0.0373457f, -0.0884668f, 0.0892694f, 0.1551158f, 0.0648700f, -0.1061593f, -0.0298418f, 0.1751450f, -0.1194132f, -0.1654612f, -0.1772972f, -0.1235645f, 0.0980472f, -0.0548366f, -0.0179565f, 0.0565641f, -0.1148412f, -0.1202887f, -0.0240619f, -0.0555079f, -0.1442797f, -0.1824045f, 0.0721460f, -0.1133936f, -0.1050215f, -0.1809016f, 0.1761201f, -0.1391586f, -0.0184264f, 0.0770669f, 0.0793386f, 0.1322348f, -0.1505406f, -0.1880583f, -0.1473335f, -0.0021394f, -0.0999574f, 0.1944813f, -0.1267246f, -0.0591459f, -0.0811813f, -0.0900834f, -0.0817190f, 0.0770919f, -0.0427448f, -0.0403891f, 0.1919264f, 0.0405903f, 0.0474712f, -0.1160594f, -0.0577004f, 0.2015473f, 0.0199361f, 0.0873566f, -0.0327053f, -0.1439639f, -0.1210932f, 0.0535572f, 0.0037381f, 0.2274778f, -0.0137175f, 0.0000589f, 0.0211519f, 0.0553212f, 0.1152942f, 0.1740588f, 0.0499148f, 0.2378610f, -0.0549708f, -0.1536130f, -0.1410623f, 0.1309894f, 0.1365807f, -0.1403963f, -0.0901069f, -0.0343312f, 0.0673427f, 0.1813020f, 0.0400271f, -0.0705730f, -0.0914217f, 0.2033005f, 0.0763360f, 0.0016470f, -0.1518292f, -0.1836930f, 0.0344052f, -0.0591020f, 0.0182099f, -0.0904215f, -0.0118269f, 0.0290856f, -0.1317069f, 0.1707135f, 0.2041271f, 0.0842710f, 0.1449730f, -0.0159187f, -0.0917699f, -0.1712279f, -0.1623415f, 0.0756059f, 0.0664707f, 0.1181835f, -0.1410553f, -0.1210243f, 0.1675825f, 0.0817869f, 0.1167203f, 0.1383845f, 0.1132189f, 0.0286232f, -0.0383537f, -0.1559275f, -0.0300656f, 0.0989688f, -0.0550718f, 0.1157241f, -0.0024338f, -0.1211880f, -0.1403613f, 0.0861525f, -0.1574384f, 0.0616994f, 0.0374568f, 0.1374424f, 0.1560569f, -0.1034003f, 0.0328257f, -0.1140439f, 0.1580751f, 0.0673318f, -0.0670588f, -0.0546736f, -0.1222798f, -0.1172228f, -0.0729426f, -0.0128109f, -0.1671303f, -0.1459516f, 0.0375550f, -0.0890814f, -0.0891364f, 0.1982300f, 0.1082496f, -0.2191264f, -0.1750528f, -0.0456204f, 0.0491699f, 0.1741946f, 0.1012885f, 0.0735619f, -0.1558733f, 0.1708521f, 0.0835259f, 0.0778567f, 0.1192560f, 0.0927238f, 0.0212529f, 0.0540953f, -0.0081531f, -0.1199981f, 0.0311515f, 0.1741867f, 0.0933821f, -0.0992241f, -0.0417530f, 0.1004040f, 0.1177106f, 0.1329321f, -0.0188263f, -0.0312333f, -0.0521944f, 0.1587411f, -0.1195711f, -0.1126075f, -0.1769671f, 0.1198861f, 0.1268165f, -0.0168434f, -0.0769604f, 0.0238237f, 0.1567264f, 0.0047308f, 0.0344173f, -0.0280697f, 0.0541411f, -0.0424057f, -0.1387407f, -0.1030814f, -0.0917294f, -0.0395961f, -0.0180512f, 0.0715550f, -0.0846386f, 0.0537923f, 0.1298214f, -0.0488224f, -0.0080091f, 0.0205525f, 0.0869778f, -0.1829146f, -0.1095500f, -0.0099842f, -0.1594228f, 0.1723093f, -0.0215633f, 0.1666357f, 0.1343407f, -0.1815740f, -0.0353534f, 0.0509711f, 0.1765331f, -0.0794171f, 0.1066626f, -0.1573441f, -0.1405416f, -0.0431268f, 0.0400372f, -0.0472127f, -0.1409061f, -0.0814533f, -0.1976674f, 0.0969115f, 0.0226043f, 0.1685489f, -0.0363443f, 0.1887116f, -0.1004326f, 0.0240125f, -0.1234437f, 0.1077640f, -0.1266657f, -0.1764257f, -0.0778999f, 0.0330494f, -0.1050512f, 0.1062511f, -0.0758687f, 0.0896101f, -0.0662351f, -0.1938543f, 0.1414330f, 0.0665057f, 0.1994590f, -0.0718081f, 0.1190034f, 0.0315195f, 0.0808317f, 0.1063668f, 0.1618368f, -0.0729089f, 0.0795379f, 0.0553894f, -0.0484883f, 0.0541798f, 0.1348055f, -0.1062438f, 0.0968389f, 0.0201530f, -0.0501461f, 0.0865608f, 0.1324790f, 0.0990161f, 0.0078933f, -0.1805432f, 0.0434181f, -0.2164460f, -0.1598089f, 0.0769318f, -0.1479182f, 0.0879017f, -0.1577648f, 0.1961402f, -0.1207996f, -0.1822039f, 0.1245557f, -0.1574032f, 0.0514099f, -0.1164245f, 0.0289171f, -0.1681927f, 0.1600096f, 0.0103331f, 0.1478671f, 0.0763529f, -0.0619109f, 0.0482661f, -0.1166284f, -0.0192923f, 0.0022351f, -0.2276772f, -0.0093443f, 0.1650545f, 0.0110185f, 0.0477205f, 0.0473785f, -0.0525694f, 0.0649661f, 0.0005326f, 0.0639488f, -0.0939199f, 0.0341263f, -0.1437411f, 0.0300536f, -0.1745251f, -0.0144877f, 0.1327225f, 0.1655218f, 0.0688167f, -0.0883949f, 0.1504071f, 0.0432153f, 0.0980850f, 0.1570252f, 0.0924098f, 0.0836492f, -0.1062693f, -0.2012966f, 0.0089655f, 0.0109641f, -0.0876158f, 0.0263340f, 0.2244856f, -0.0302261f, 0.0773770f, 0.0192368f, 0.1322562f, -0.0434226f, -0.0257139f, -0.2151910f, 0.0616538f, -0.0582720f, 0.1584184f, 0.1197835f, -0.0234470f, -0.1439330f, -0.0598867f, -0.1157110f, 0.0137231f, 0.0495573f, 0.0955320f, -0.1852462f, -0.0150147f, -0.0051583f, -0.0725971f, -0.1355640f, -0.0006212f, -0.1154565f, 0.1666341f, -0.0841883f, -0.0915480f, -0.0488783f, 0.1243905f, -0.0124415f, -0.1983043f, -0.0687710f, -0.1439280f, -0.1325465f, -0.1123826f, 0.1894368f, 0.1021355f, 0.1407675f, 0.0754286f, -0.1073484f, 0.0549997f, -0.1116521f, 0.1049225f, -0.0948471f, -0.0222785f, 0.0992075f, -0.1299455f, 0.1225796f, -0.0209031f, 0.0333925f, 0.0585145f, -0.1203463f, 0.0979177f, 0.0134962f, 0.0437894f, 0.1517160f, -0.0952961f, -0.0484394f, 0.1383653f, -0.0092960f, 0.1095281f, 0.0608078f, 0.1880097f, -0.1299995f, -0.0925876f, 0.1030565f, -0.1337569f, 0.1345589f, -0.1445387f, 0.0477182f, -0.0345611f, 0.0782056f, 0.0256908f, -0.1391375f, 0.1334103f, -0.0193272f, 0.1710748f, -0.0143236f, -0.1442704f, -0.1451373f, -0.0194251f, 0.0256563f, -0.0613503f, 0.1718057f, 0.0953825f, -0.1098718f, -0.1677781f, 0.0187809f, 0.1638208f, -0.0384400f, 0.1817679f, -0.1108646f, -0.0535827f, -0.1400001f, -0.0964912f, 0.1529181f, 0.1669471f, 0.0932320f, 0.1531682f, 0.1760301f, -0.0935455f, 0.0516284f, 0.0663683f, -0.0232127f, 0.0478255f, -0.0932141f, -0.1613958f, -0.1253933f, -0.1265023f, -0.0086146f, -0.0567792f, 0.1202002f, -0.0951009f, 0.0206466f, -0.0646865f, 0.0969813f, -0.0800654f, 0.0152394f, 0.0304080f, -0.0489482f, 0.1386288f, -0.1207359f, 0.0734358f, 0.0287454f, -0.0784466f, -0.0558489f, -0.0861599f, -0.0130863f, -0.0556635f, 0.1611929f, 0.0685982f, 0.0908949f, -0.0359887f, 0.0202975f, 0.1196232f, -0.1197368f, 0.0953735f, 0.0915952f, -0.0691192f, 0.1414685f, -0.0121699f, 0.1393166f, 0.1601479f, -0.0795738f, -0.0123055f, 0.0245433f, 0.0265455f, -0.1662022f, -0.0579267f, 0.0813270f, 0.0629584f, 0.0108250f, 0.0678279f, -0.2015114f, -0.1181842f, 0.1784585f, -0.1352987f, -0.0269823f, -0.0384160f, -0.1155508f, 0.1271123f, -0.0611780f, -0.0811779f, 0.0544979f, -0.1942451f, 0.0175203f, -0.0688155f, 0.1068750f, -0.1110180f, 0.0849042f, 0.1540017f, 0.0367259f, 0.1356498f, 0.1178204f, 0.0611654f, 0.0731069f, -0.0424433f, -0.0813793f, 0.0759438f, 0.0152575f, 0.0919135f, 0.0914195f, -0.0014461f, 0.1160035f, 0.0749523f, 0.1748401f, -0.0871126f, 0.0686966f, 0.1091131f, -0.1138793f, -0.1662798f, 0.0308853f, 0.0169966f, -0.0330542f, 0.0246188f, 0.1679930f, -0.0180903f, -0.1186121f, -0.1181651f, -0.0779298f, 0.0700623f, -0.0483641f, -0.0996557f, 0.1199539f, -0.0677969f, -0.1118653f, -0.0075915f, 0.0465000f, -0.0186396f, -0.1383282f, -0.1427153f, 0.1866863f, -0.2025515f, 0.0795745f, 0.0795146f, -0.0786994f, 0.0799573f, -0.0712263f, 0.0614839f, 0.0362301f, 0.0590545f, -0.0352709f, -0.0453873f, -0.0474894f, 0.0105402f, -0.0559017f, -0.0211163f, -0.0206921f, 0.1335731f, -0.1013037f, 0.1790892f, 0.1890729f, 0.0298136f, -0.1276873f, 0.0383484f, 0.0614459f, -0.0287407f, -0.0151123f, -0.1036496f, 0.1162870f, 0.1152751f, -0.0901454f, 0.0354717f, 0.0534176f, -0.0003213f, -0.0682502f, 0.1230919f, -0.0544045f, -0.0111625f, 0.0195930f, 0.0991391f, -0.0095926f, -0.0397405f, 0.0934495f, 0.0744874f, 0.1115021f, -0.1439928f, 0.1550997f, -0.0533911f, -0.1115904f, -0.0225945f, -0.1519038f, -0.0417521f, -0.1759286f, 0.1010688f, 0.0225194f, -0.1077820f, -0.0012556f, 0.1002468f, 0.0613332f, -0.1006912f, 0.0933805f, -0.0515650f, -0.0135975f, -0.1419776f, 0.0836057f, -0.0323182f, -0.1225742f, 0.0673040f, -0.0119820f, -0.0484134f, 0.0222455f, -0.1525596f, 0.0889799f, 0.1167453f, 0.0411858f, -0.1200392f, -0.0391036f, 0.0646205f, 0.1435067f, -0.0558278f, 0.1583398f, 0.1754805f, 0.1675100f, -0.0068150f, 0.1761468f, -0.0287034f, 0.1830658f, -0.1336152f, 0.0246332f, -0.0498516f, -0.0686546f, 0.1300149f, 0.1849075f, 0.1759304f, 0.0676588f, -0.0855229f, -0.1044681f, -0.0855668f, -0.1533567f, 0.2685433f, 0.1653140f, 0.1549631f, 0.0360135f, -0.0807528f, 0.0196807f, -0.0112525f, 0.0817572f, 0.0367045f, -0.0556294f, 0.1372950f, -0.0849788f, 0.0575517f, -0.0595463f, 0.0623075f, -0.0669167f, -0.1460405f, 0.0751937f, 0.1468084f, -0.1183789f, 0.0473266f, -0.0058893f, -0.0681012f, 0.1835332f, 0.0894750f, -0.0982674f, -0.0734482f, -0.0635256f, -0.0270295f, -0.0930142f, 0.1126012f, 0.0862093f, -0.0166896f, 0.1388814f, 0.0653601f, -0.1255565f, 0.1370619f, 0.1226006f, 0.1361804f, -0.0046392f, -0.2040142f, -0.1219405f, -0.0860930f, -0.1543092f, -0.1571558f, 0.1284728f, 0.0716248f, 0.0353946f, 0.0872442f, 0.1044991f, -0.1357689f, -0.1006222f, 0.0159938f, 0.0509128f, -0.1010686f, 0.1196094f, 0.1466390f, -0.0066603f, -0.0198699f, 0.1447946f, 0.0557949f, 0.2171971f, 0.0325623f, 0.0575794f, -0.0523013f, 0.1217769f, 0.0136288f, 0.1765458f, 0.0945997f, 0.0719305f, -0.0638788f, 0.0033041f, 0.0612619f, -0.1289014f, 0.1859407f, 0.0242113f, -0.0975725f, 0.0386168f, 0.1699317f, 0.0293367f, 0.1408116f, 0.0096858f, -0.1387496f, 0.1182859f, -0.0989654f, 0.1526171f, 0.0801627f, -0.1098199f, 0.0053468f, -0.1956967f, -0.1484237f, -0.1896787f, -0.0425473f, 0.0634211f, -0.0175074f, -0.0847685f, -0.1832409f, -0.1490115f, -0.1525532f, 0.1675048f, -0.0039541f, 0.0616845f, 0.0786402f, 0.0042789f, -0.0760416f, -0.0069076f, 0.0452697f, 0.0551538f, 0.1491272f, -0.1430915f, 0.0464659f, 0.0264684f, 0.0215677f, 0.0632026f, 0.0932741f, 0.0535841f, -0.0928462f, -0.0256697f, 0.1398194f, -0.0034304f, -0.0889216f, -0.0532688f, 0.1057998f, -0.1415969f, -0.1456737f, -0.0150425f, 0.1349884f, 0.0839507f, 0.0305441f, -0.1265109f, -0.1479681f, 0.1765855f, 0.0083368f, 0.0466966f, 0.0660498f, 0.0034156f, 0.0941900f, 0.0641846f, -0.1381676f, 0.1536432f, -0.1678270f, 0.1188579f, -0.0980124f, 0.1744286f, 0.0083318f, 0.1790902f, -0.1311535f, 0.1743627f, -0.1544179f, -0.0664303f, 0.0439052f, -0.0499082f, -0.0143716f, -0.1709667f, -0.0146486f, -0.1391699f, 0.1175918f, 0.2352594f, -0.1145466f, -0.1351747f, -0.1298969f, 0.0858035f, -0.0961635f, -0.0177096f, 0.0941028f, -0.1814379f, -0.1032134f, 0.0388374f, -0.2061074f, 0.0223925f, 0.1464858f, -0.1484074f, 0.0354422f, -0.0321958f, -0.0401917f, 0.0667386f, 0.0913261f, 0.0479871f, 0.0636470f, -0.1218178f, -0.0384657f, 0.1383214f
};

const float net_4_bias[32] = {
    -0.1201116f, -0.0712086f, 0.1451067f, 0.0959458f, -0.1062877f, 0.1824147f, 0.0062377f, -0.1231780f, 0.0744219f, 0.0511330f, 0.0232201f, -0.1156276f, 0.1239073f, 0.1513491f, 0.0201125f, -0.0049677f, -0.0525656f, 0.0865916f, 0.0039573f, -0.0990020f, 0.0196466f, 0.1388138f, 0.0511410f, 0.0534314f, -0.0465014f, 0.1524459f, 0.1057104f, 0.0822572f, 0.0437743f, 0.0834012f, -0.0361482f, 0.1266621f
};
#define SIZE_NET_4_BIAS 32

const float net_6_weight[32] = {
    0.1844258f, -0.1021111f, -0.0845773f, -0.1571617f, 0.0609629f, 0.1908507f, 0.1432718f, -0.0900343f, 0.1890640f, -0.2735750f, 0.1820031f, 0.1717770f, 0.1421828f, 0.1277188f, 0.1919983f, -0.1701287f, 0.2214836f, -0.0651005f, 0.0707819f, -0.1899594f, 0.0746752f, 0.2356440f, -0.0197762f, -0.1184503f, 0.1563150f, -0.1358392f, 0.0651980f, -0.0124056f, -0.1728517f, -0.2414334f, -0.2290820f, -0.0665196f
};

const float net_6_bias[1] = {
    -0.0326660f
};
#define SIZE_NET_6_BIAS 1

#endif // _MODEL_WEIGHTS_H
